{
  "data_preprocessing": {
    "num_features": 4,
    "feature_names": [
      "A",
      "D",
      "Y",
      "V"
    ],
    "train_samples": 51827,
    "val_samples": 11090,
    "test_samples": 11091,
    "lookback_window": 20
  },
  "optimization": {
    "best_hyperparams": {
      "num_layers": 2,
      "hidden_dim": 80,
      "learning_rate": 0.005772742225187276,
      "dropout": 0.02922572787675284,
      "lookback_window": 26
    },
    "best_objectives": {
      "rmse": 0.11214183177830671,
      "latency_ms": 1.056665573120117,
      "overfitting_gap": 0.005049238831909804
    },
    "pareto_front": {
      "objectives": [
        [
          0.13619142211431728,
          0.00800747528076172,
          0.006770496617056266
        ],
        [
          0.14432245091060927,
          0.008641741180419922,
          0.0031307899247931884
        ],
        [
          0.11880133362958355,
          0.010673152160644532,
          0.0017811488882226566
        ],
        [
          0.11214183177830671,
          0.01056665573120117,
          0.005049238831909804
        ],
        [
          0.14144031360936848,
          0.00934625244140625,
          0.004478501381660357
        ],
        [
          0.12437447499182158,
          0.010596556854248047,
          0.0024197527150837204
        ],
        [
          0.14273955445450043,
          0.008493055725097655,
          0.005085388019552816
        ],
        [
          0.13676694315094304,
          0.009893682861328124,
          0.002852244497944509
        ]
      ],
      "variables": [
        [
          2.2646490168141282,
          84.38286543246574,
          0.005378618323146789,
          0.020162704648848173,
          19.53723086308267
        ],
        [
          2.2646490168141282,
          68.14295033019295,
          0.006052790885626657,
          0.020162704648848173,
          19.53723086308267
        ],
        [
          2.3708938741543983,
          80.95601449040774,
          0.005512084888560455,
          0.029264204854756178,
          26.56372865741013
        ],
        [
          2.428944912152137,
          80.95601449040774,
          0.005772742225187276,
          0.02922572787675284,
          26.203806217817316
        ],
        [
          2.4265600955163493,
          68.24395557396623,
          0.007110257144155502,
          0.020162704648848173,
          19.53723086308267
        ],
        [
          2.4303434005093285,
          80.95601449040774,
          0.005772819302536767,
          0.029303941898395365,
          26.203806217817316
        ],
        [
          2.5296870862122773,
          84.48351448178047,
          0.007110257144155502,
          0.020162704648848173,
          19.53723086308267
        ],
        [
          2.5296870862122773,
          84.48351448178047,
          0.007110257144155502,
          0.02023959227201621,
          19.53723086308267
        ]
      ]
    },
    "optimization_time": 5225.885944843292,
    "config": {
      "population_size": 8,
      "max_generations": 5,
      "weights": [
        0.9,
        0.05,
        0.05
      ]
    },
    "convergence_history": [
      {
        "gen": 0,
        "best_f": 0.006787389807521832
      },
      {
        "gen": 1,
        "best_f": 0.003919242871247258
      },
      {
        "gen": 2,
        "best_f": 0.003919242871247258
      },
      {
        "gen": 3,
        "best_f": 0.0031307899247931884
      },
      {
        "gen": 4,
        "best_f": 0.006770496617056266
      }
    ]
  },
  "training": {
    "model_config": {
      "input_dim": 4,
      "hidden_dim": 80,
      "num_layers": 2,
      "dropout": 0.02922572787675284,
      "feature_attention_dim": 40,
      "temporal_attention_dim": 40,
      "output_dim": 1
    },
    "training_config": {
      "epochs": 100,
      "learning_rate": 0.005772742225187276,
      "weight_decay": 1e-05,
      "batch_size": 64,
      "early_stopping_patience": 15,
      "min_epochs": 20,
      "gradient_clip_norm": 1.0,
      "save_best_model": true,
      "save_checkpoints": true,
      "checkpoint_interval": 10,
      "log_interval": 10,
      "validation_interval": 1
    },
    "hyperparameters": {
      "num_layers": 2,
      "hidden_dim": 80,
      "learning_rate": 0.005772742225187276,
      "dropout": 0.02922572787675284,
      "lookback_window": 26
    },
    "training_time": 414.03086376190186,
    "best_val_loss": 0.012459433145135984,
    "final_train_loss": 0.009113022502810682
  },
  "evaluation": {
    "test_metrics": {
      "rmse": 54.144471364091046,
      "mae": 37.83368682861328,
      "r2": 0.9395662546157837,
      "mape": 31.877761840820312,
      "training_time": 0.0,
      "inference_time": 1.3325241790420708,
      "model_size_mb": 0.36623382568359375,
      "num_parameters": 96006
    },
    "val_metrics": {
      "rmse": 136.72115355030107,
      "mae": 106.73019409179688,
      "r2": 0.9691537618637085,
      "mape": 64.6005859375,
      "training_time": 0.0,
      "inference_time": 1.1517398658840137,
      "model_size_mb": 0.36623382568359375,
      "num_parameters": 96006
    },
    "test_results": {
      "predictions_original": [
        -1057.411865234375,
        -1066.3507080078125,
        -1078.536376953125,
        -1096.8677978515625,
        -1110.09619140625,
        -1112.3040771484375,
        -1105.5863037109375,
        -1099.1776123046875,
        -1095.636474609375,
        -1095.694580078125,
        -1094.2532958984375,
        -1088.9847412109375,
        -1079.5577392578125,
        -1075.7191162109375,
        -1077.7017822265625,
        -1078.5252685546875,
        -1077.2064208984375,
        -1073.847900390625,
        -1079.5311279296875,
        -1090.134765625,
        -1096.5435791015625,
        -1093.599365234375,
        -1086.6826171875,
        -1102.2127685546875,
        -1158.93115234375,
        -1236.617431640625,
        -1319.962646484375,
        -1401.6131591796875,
        -1480.9486083984375,
        -1538.3636474609375,
        -1569.511962890625,
        -1578.664794921875,
        -1575.421875,
        -1575.838623046875,
        -1588.85205078125,
        -1608.1707763671875,
        -1624.9521484375,
        -1634.40185546875,
        -1636.1729736328125,
        -1638.8642578125,
        -1645.6990966796875,
        -1664.6114501953125,
        -1685.8372802734375,
        -1689.77880859375,
        -1670.82421875,
        -1649.1654052734375,
        -1631.673095703125,
        -1618.718017578125,
        -1609.100341796875,
        -1598.251220703125,
        -1583.65234375,
        -1555.2066650390625,
        -1521.698486328125,
        -1482.9970703125,
        -1416.959228515625,
        -1318.80712890625,
        -1179.729736328125,
        -1018.4945068359375,
        -848.3900756835938,
        -663.4703369140625,
        -476.4564208984375,
        -304.0248107910156,
        -213.8662109375,
        -156.0367889404297,
        -104.63059997558594,
        -0.7846547961235046,
        91.8771743774414,
        210.86495971679688,
        255.33892822265625,
        329.5268249511719,
        366.9901123046875,
        366.4143371582031,
        367.2155456542969,
        430.50347900390625,
        529.7824096679688,
        643.4429931640625,
        734.2525634765625,
        786.9086303710938,
        823.8226318359375,
        830.0410766601562,
        772.5816040039062,
        756.9961547851562,
        737.0302734375,
        777.8182373046875,
        809.9071655273438,
        861.3310546875,
        922.6195068359375,
        986.09033203125,
        1002.4295654296875,
        1013.3062744140625,
        1017.9573974609375,
        1029.8138427734375,
        1044.21630859375,
        1050.13330078125,
        1047.284912109375,
        1061.9447021484375,
        1096.4779052734375,
        1102.5244140625,
        1079.145751953125,
        1067.8184814453125,
        1060.2662353515625,
        1063.21533203125,
        1070.77783203125,
        1064.4754638671875,
        1057.446533203125,
        1035.924560546875,
        1022.740234375,
        1028.331298828125,
        1029.721923828125,
        1010.7752685546875,
        994.5255126953125,
        966.4639892578125,
        927.1683349609375,
        890.3056640625,
        878.7539672851562,
        903.7418212890625,
        940.1287841796875,
        963.4376220703125,
        949.2037353515625,
        926.7779541015625,
        888.9973754882812,
        867.7889404296875,
        849.5234985351562,
        835.668701171875,
        806.9146118164062,
        770.10009765625,
        735.317138671875,
        684.7625732421875,
        355.71844482421875,
        432.84735107421875,
        518.8817749023438,
        558.1160888671875,
        580.6972045898438,
        546.6336669921875,
        489.2567138671875,
        474.6195068359375,
        453.842529296875,
        460.3228759765625,
        453.26751708984375,
        438.15716552734375,
        416.73236083984375,
        399.06927490234375,
        385.26715087890625,
        381.3792419433594,
        357.5946044921875,
        267.4401550292969,
        148.057373046875,
        -19.397111892700195,
        -280.4436340332031,
        -547.3480224609375,
        -707.2111206054688,
        -812.8418579101562,
        -782.3033447265625,
        -704.413330078125,
        -706.6419067382812,
        -751.4478149414062,
        -814.8350830078125,
        -895.7607421875,
        -906.3256225585938,
        -881.5509643554688,
        -861.704345703125,
        -833.5399169921875,
        -808.17138671875,
        -797.8102416992188,
        -860.0801391601562,
        -868.2791137695312,
        -837.3049926757812,
        -853.0127563476562,
        -888.8753051757812,
        -922.11962890625,
        -845.1399536132812,
        -826.4362182617188,
        -881.159423828125,
        -937.3114013671875,
        -981.920654296875,
        -1012.7813110351562,
        -1045.9041748046875,
        -1085.1827392578125,
        -1124.85009765625,
        -1250.251708984375,
        -1299.156005859375,
        -1363.217041015625,
        -1389.9613037109375,
        -1409.5191650390625,
        -1402.6695556640625,
        -1415.7567138671875,
        -1402.66455078125,
        -1381.2681884765625,
        -1376.025146484375,
        -1371.2010498046875,
        -1361.592041015625,
        -1345.274169921875,
        -1333.390380859375,
        -1327.09130859375,
        -1322.76220703125,
        -1315.8834228515625,
        -1314.75,
        -1307.333251953125,
        -1298.3974609375,
        -1270.47802734375,
        -1238.84130859375,
        -1220.4000244140625,
        -1202.73876953125,
        -1166.9884033203125,
        -1099.829345703125,
        -978.7051391601562,
        -779.8759765625,
        -522.9434814453125,
        -284.9570617675781,
        -38.467899322509766,
        188.75082397460938,
        427.65576171875,
        603.1411743164062,
        730.4249267578125,
        796.1165771484375,
        827.24169921875,
        848.8677978515625,
        889.8312377929688,
        738.1267700195312,
        872.3464965820312,
        941.1832275390625,
        957.5133056640625,
        939.6116943359375,
        915.035400390625,
        945.2564697265625,
        949.9796142578125,
        925.8797607421875,
        885.7576293945312,
        886.0396118164062,
        970.8978271484375,
        974.525634765625,
        960.1727294921875,
        973.578369140625,
        1027.45556640625,
        1088.2061767578125,
        1067.4002685546875,
        987.6956787109375,
        895.1712036132812,
        758.6417846679688,
        707.1787109375,
        649.0760498046875,
        612.1199951171875,
        582.4969482421875,
        578.1096801757812,
        559.2155151367188,
        491.8336181640625,
        449.590087890625,
        448.123291015625,
        366.3841857910156,
        318.1595458984375,
        257.78466796875,
        155.127685546875,
        31.337804794311523,
        -149.74374389648438,
        -356.1513977050781,
        -506.32659912109375,
        -583.7837524414062,
        -635.9616088867188,
        -682.5616455078125,
        -732.021240234375,
        -793.4304809570312,
        -862.5106811523438,
        -965.321044921875,
        -1052.42529296875,
        -1115.2896728515625,
        -1169.846435546875,
        -998.3606567382812,
        -772.6071166992188,
        -660.9925537109375,
        -636.5156860351562,
        -642.0599975585938,
        -581.6412963867188,
        -431.6126403808594,
        -253.90223693847656,
        -80.02698516845703,
        12.654684066772461,
        143.796630859375,
        295.5982360839844,
        428.22344970703125,
        503.32666015625,
        525.2438354492188,
        545.602294921875,
        583.7849731445312,
        642.2645263671875,
        744.197021484375,
        778.3611450195312,
        831.885498046875,
        972.639892578125,
        1004.88818359375,
        986.2564697265625,
        991.696044921875,
        993.423095703125,
        960.6578369140625,
        929.703125,
        916.1865234375,
        919.7884521484375,
        906.480224609375,
        866.9364624023438,
        798.6714477539062,
        691.7380981445312,
        582.29296875,
        501.3775634765625,
        457.7662353515625,
        433.0228271484375,
        401.3525390625,
        364.6969909667969,
        342.98980712890625,
        307.68939208984375,
        220.2391357421875,
        251.65625,
        185.07943725585938,
        154.283203125,
        106.09149932861328,
        93.4501724243164,
        99.3210678100586,
        116.77208709716797,
        131.47412109375,
        129.28646850585938,
        122.87371063232422,
        109.45471954345703,
        99.3690414428711,
        135.99038696289062,
        169.676513671875,
        142.77719116210938,
        68.80838775634766,
        74.43476104736328,
        160.54306030273438,
        254.12911987304688,
        316.5249328613281,
        350.16510009765625,
        342.8020935058594,
        309.0361328125,
        252.75186157226562,
        273.17681884765625,
        278.2504577636719,
        332.0524597167969,
        345.2417297363281,
        303.18768310546875,
        297.34161376953125,
        338.2574768066406,
        380.7164306640625,
        292.23284912109375,
        175.61358642578125,
        135.96978759765625,
        122.9795913696289,
        119.26677703857422,
        118.1728744506836,
        118.97032928466797,
        176.68734741210938,
        382.7533264160156,
        419.747802734375,
        426.84521484375,
        422.2381591796875,
        407.57958984375,
        355.38739013671875,
        302.9649963378906,
        259.1171569824219,
        183.13824462890625,
        140.93881225585938,
        106.96117401123047,
        88.3814926147461,
        93.62354278564453,
        111.08077239990234,
        107.94776153564453,
        100.15767669677734,
        104.51107025146484,
        102.13561248779297,
        64.18419647216797,
        40.72714614868164,
        42.75319290161133,
        54.56930923461914,
        63.35234451293945,
        68.33435821533203,
        80.37078094482422,
        106.51371002197266,
        130.93960571289062,
        139.52059936523438,
        147.555908203125,
        158.61935424804688,
        158.86505126953125,
        150.0155029296875,
        140.09136962890625,
        123.78870391845703,
        102.26996612548828,
        72.73477935791016,
        49.73764419555664,
        4.620443344116211,
        -137.46893310546875,
        -434.0634765625,
        -754.9935302734375,
        -1021.683349609375,
        -1249.6519775390625,
        -1348.5560302734375,
        -1356.9654541015625,
        -1393.535400390625,
        -1444.9534912109375,
        -1448.049560546875,
        -1445.9149169921875,
        -1492.83837890625,
        -1503.4295654296875,
        -1523.2474365234375,
        -1538.1239013671875,
        -1547.3670654296875,
        -1557.356689453125,
        -1565.0230712890625,
        -1535.956298828125,
        -1514.172119140625,
        -1486.69921875,
        -1474.7205810546875,
        -1478.0032958984375,
        -1483.8619384765625,
        -1487.4461669921875,
        -1487.6029052734375,
        -1487.2528076171875,
        -1486.4388427734375,
        -1480.598388671875,
        -1408.3065185546875,
        -1311.267333984375,
        -1195.7783203125,
        -1105.0947265625,
        -1014.580810546875,
        -930.6797485351562,
        -884.6844482421875,
        -872.8394165039062,
        -854.6099853515625,
        -813.973876953125,
        -772.155517578125,
        -742.4166870117188,
        -698.787109375,
        -648.3777465820312,
        -610.5801391601562,
        -603.2696533203125,
        -587.3111572265625,
        -553.5374755859375,
        -521.3314819335938,
        -506.16485595703125,
        -485.0503845214844,
        -426.20892333984375,
        -325.734375,
        -198.9528045654297,
        -72.4991226196289,
        84.81661224365234,
        221.73825073242188,
        302.4700622558594,
        342.3704528808594,
        376.1324768066406,
        420.87640380859375,
        477.75213623046875,
        552.4692993164062,
        665.826171875,
        791.4650268554688,
        840.8325805664062,
        890.8594360351562,
        922.5341796875,
        946.5401611328125,
        960.966552734375,
        962.339599609375,
        957.855224609375,
        982.2733154296875,
        1067.4530029296875,
        1146.6282958984375,
        1182.072509765625,
        1184.2509765625,
        1182.1357421875,
        1158.8787841796875,
        1126.36962890625,
        1090.381103515625,
        1053.250732421875,
        1017.760498046875,
        998.80712890625,
        1006.744140625,
        991.5830078125,
        949.92919921875,
        926.9837646484375,
        924.280029296875,
        984.0771484375,
        1038.9578857421875,
        1061.992431640625,
        1030.5908203125,
        1001.7391357421875,
        952.984130859375,
        915.8114013671875,
        893.8974609375,
        878.1283569335938,
        856.4805908203125,
        837.009033203125,
        818.3137817382812,
        772.2257080078125,
        372.54443359375,
        452.02484130859375,
        541.0294189453125,
        601.8295288085938,
        626.785888671875,
        632.3140869140625,
        613.2444458007812,
        593.3773803710938,
        570.3908081054688,
        544.7811279296875,
        505.44171142578125,
        474.24560546875,
        510.05712890625,
        584.507080078125,
        606.1798706054688,
        657.3041381835938,
        714.6007690429688,
        748.12255859375,
        778.2579956054688,
        820.0535278320312,
        848.3507690429688,
        861.411865234375,
        895.56103515625,
        939.4710693359375,
        974.80712890625,
        993.2911376953125,
        1002.2451171875,
        1011.7435302734375,
        1015.2569580078125,
        998.7955322265625,
        955.91650390625,
        937.0137939453125,
        923.58251953125,
        915.975830078125,
        910.448486328125,
        903.012939453125,
        894.44580078125,
        890.2534790039062,
        891.1182250976562,
        892.7667236328125,
        891.8558349609375,
        882.2794189453125,
        863.7412109375,
        840.2486572265625,
        818.0261840820312,
        804.9796752929688,
        808.4993286132812,
        829.0857543945312,
        860.0980224609375,
        895.488037109375,
        926.8778076171875,
        949.4775390625,
        963.70458984375,
        974.6546630859375,
        981.983642578125,
        981.9752197265625,
        977.0740966796875,
        967.1473388671875,
        956.7955322265625,
        949.296142578125,
        949.49169921875,
        957.8870849609375,
        964.8287353515625,
        967.3746337890625,
        972.25146484375,
        981.6593017578125,
        978.988037109375,
        969.8701171875,
        962.667236328125,
        957.53173828125,
        950.1500244140625,
        939.9365234375,
        931.6162109375,
        926.9876708984375,
        924.4736328125,
        921.5224609375,
        925.604248046875,
        942.4588623046875,
        968.8916015625,
        994.6165771484375,
        1010.0057373046875,
        1016.1339111328125,
        1019.7489013671875,
        1024.080322265625,
        1027.6968994140625,
        1028.3995361328125,
        1027.3497314453125,
        1025.0048828125,
        1020.9791259765625,
        1017.289794921875,
        1019.1165771484375,
        1027.622802734375,
        1030.87060546875,
        1027.59765625,
        1027.5587158203125,
        1032.540283203125,
        1033.4619140625,
        1031.8291015625,
        1032.2784423828125,
        1033.25927734375,
        1030.87841796875,
        1024.8756103515625,
        1020.2015380859375,
        1018.518798828125,
        1016.6978759765625,
        1013.3922119140625,
        1014.91064453125,
        1025.907470703125,
        1041.9259033203125,
        1054.72412109375,
        1058.525146484375,
        1059.166259765625,
        1061.508056640625,
        1064.275634765625,
        1064.3892822265625,
        1061.9306640625,
        1059.8646240234375,
        1057.2061767578125,
        1054.6763916015625,
        1053.0638427734375,
        1054.7342529296875,
        1057.864501953125,
        1056.6514892578125,
        1053.6439208984375,
        1053.0267333984375,
        1053.154541015625,
        1049.637451171875,
        1045.7659912109375,
        1043.6483154296875,
        1040.2867431640625,
        1021.362060546875,
        1001.0982666015625,
        974.306640625,
        932.5159912109375,
        860.5083618164062,
        732.5293579101562,
        559.1787719726562,
        325.223876953125,
        175.98483276367188,
        92.57939910888672,
        -51.40517807006836,
        -229.73501586914062,
        -412.7251281738281,
        -608.3840942382812,
        -694.988525390625,
        -732.26953125,
        -714.5042724609375,
        -712.1941528320312,
        -694.4578247070312,
        -788.4384765625,
        -852.1546020507812,
        -886.6234741210938,
        -887.2949829101562,
        -897.580322265625,
        -876.7289428710938,
        -792.207275390625,
        -705.6756591796875,
        -746.5328369140625,
        -765.6890869140625,
        -775.772216796875,
        -772.2918090820312,
        -756.0299072265625,
        -758.9241333007812,
        -719.9374389648438,
        -640.744873046875,
        -570.4678344726562,
        -592.2105712890625,
        -576.1558837890625,
        -570.842041015625,
        -580.1798095703125,
        -584.6406860351562,
        -612.0507202148438,
        -602.5535888671875,
        -598.7589111328125,
        -627.9594116210938,
        -729.2456665039062,
        -694.6644287109375,
        -715.2154541015625,
        -728.3167114257812,
        -717.96630859375,
        -693.1564331054688,
        -650.746826171875,
        -649.257080078125,
        -660.4813842773438,
        -671.5986328125,
        -676.30078125,
        -673.3197021484375,
        -677.5634155273438,
        -681.884521484375,
        -683.34033203125,
        -697.4102172851562,
        -698.9248657226562,
        -689.19140625,
        -662.5667114257812,
        -677.83349609375,
        -670.9813842773438,
        -641.3031616210938,
        -632.4113159179688,
        -605.3463134765625,
        -632.55859375,
        -625.6096801757812,
        -584.1166381835938,
        -552.5887451171875,
        -577.8922119140625,
        -601.0660400390625,
        -620.3829956054688,
        -638.853759765625,
        -634.5066528320312,
        -614.8532104492188,
        -585.3394165039062,
        -598.7044677734375,
        -597.7413940429688,
        -590.7699584960938,
        -587.7105102539062,
        -568.3828735351562,
        -564.479736328125,
        -564.7830810546875,
        -569.9950561523438,
        -539.9745483398438,
        -529.6002807617188,
        -571.830078125,
        -574.3372192382812,
        -551.9541625976562,
        -523.8370361328125,
        -516.4346313476562,
        -581.5722045898438,
        -584.604736328125,
        -587.2994995117188,
        -561.1788940429688,
        -471.4682922363281,
        -527.4414672851562,
        -539.0083618164062,
        -559.4862060546875,
        -551.4409790039062,
        -535.15673828125,
        -543.5210571289062,
        -528.8167114257812,
        -495.38446044921875,
        -454.15045166015625,
        -414.2754211425781,
        -461.5694580078125,
        -466.9710388183594,
        -477.873291015625,
        -477.4165954589844,
        -456.9098205566406,
        -421.1573486328125,
        -440.69757080078125,
        -432.3937072753906,
        -419.6119384765625,
        -414.22454833984375,
        -421.5535583496094,
        -440.23419189453125,
        -441.3564453125,
        -445.3998107910156,
        -451.31060791015625,
        -455.27349853515625,
        -448.5634460449219,
        -413.0205078125,
        -366.4613037109375,
        -344.2110900878906,
        -353.7484436035156,
        -377.1229248046875,
        -387.331298828125,
        -389.8572998046875,
        -383.3697509765625,
        -364.56329345703125,
        -343.08099365234375,
        -333.4429931640625,
        -311.7596435546875,
        -290.7699279785156,
        -285.0409851074219,
        -310.66217041015625,
        -344.0336608886719,
        -360.92626953125,
        -361.1732482910156,
        -355.3167419433594,
        -338.2834167480469,
        -337.8495788574219,
        -337.62188720703125,
        -322.3761901855469,
        -315.14697265625,
        -323.02374267578125,
        -334.4098205566406,
        -334.6298522949219,
        -327.00579833984375,
        -313.1319885253906,
        -303.2703552246094,
        -273.1064453125,
        -255.01809692382812,
        -271.9095458984375,
        -272.6628723144531,
        -270.1947937011719,
        -275.05169677734375,
        -277.06353759765625,
        -292.8642272949219,
        -295.28729248046875,
        -288.9540710449219,
        -284.8871154785156,
        -286.1090087890625,
        -291.5938415527344,
        -286.899658203125,
        -281.0812072753906,
        -280.51202392578125,
        -288.3277893066406,
        -295.9461669921875,
        -297.99688720703125,
        -298.4133605957031,
        -302.032958984375,
        -292.8974304199219,
        -285.4976806640625,
        -292.795166015625,
        -295.0867004394531,
        -294.6988220214844,
        -294.68511962890625,
        -296.7351989746094,
        -295.564697265625,
        -289.4739074707031,
        -288.7036437988281,
        -293.59588623046875,
        -276.8385314941406,
        -256.24176025390625,
        -260.49676513671875,
        -265.3276672363281,
        -279.04925537109375,
        -291.2992858886719,
        -298.34820556640625,
        -300.2461853027344,
        -302.37066650390625,
        -305.30645751953125,
        -306.5892028808594,
        -299.57965087890625,
        -284.13861083984375,
        -267.0239562988281,
        -253.388671875,
        -244.88638305664062,
        -243.77838134765625,
        -245.2787628173828,
        -244.24986267089844,
        -250.79066467285156,
        -260.1685791015625,
        -263.6721496582031,
        -263.4180908203125,
        -260.5244140625,
        -264.3753662109375,
        -273.5854797363281,
        -279.5103759765625,
        -279.3446350097656,
        -271.502197265625,
        -266.033447265625,
        -261.43121337890625,
        -266.01220703125,
        -270.06005859375,
        -264.1292724609375,
        -245.27223205566406,
        -228.0700225830078,
        -223.3501739501953,
        -233.78248596191406,
        -250.46290588378906,
        -267.61663818359375,
        -281.8478698730469,
        -287.23565673828125,
        -269.84906005859375,
        -257.158447265625,
        -251.45628356933594,
        -247.64065551757812,
        -250.62127685546875,
        -254.9354705810547,
        -254.3360137939453,
        -251.3883056640625,
        -249.72662353515625,
        -250.69821166992188,
        -257.6401672363281,
        -254.0895233154297,
        -246.2847137451172,
        -238.06304931640625,
        -239.58143615722656,
        -241.9423828125,
        -245.48983764648438,
        -246.76986694335938,
        -243.74559020996094,
        -240.16323852539062,
        -228.47120666503906,
        -216.240478515625,
        -201.91452026367188,
        -192.44589233398438,
        -189.11474609375,
        -188.6629180908203,
        -182.84130859375,
        -184.2429656982422,
        -184.7398223876953,
        -178.04916381835938,
        -175.7094268798828,
        -177.8028106689453,
        -173.95614624023438,
        -168.23280334472656,
        -161.48355102539062,
        -155.61712646484375,
        -149.80691528320312,
        -153.92112731933594,
        -154.7386932373047,
        -144.53170776367188,
        -138.1306915283203,
        -132.37399291992188,
        -135.86973571777344,
        -134.6532440185547,
        -136.31907653808594,
        -140.4738006591797,
        -141.26593017578125,
        -137.16844177246094,
        -134.6070556640625,
        -135.7501220703125,
        -127.8302001953125,
        -115.74335479736328,
        -119.17810821533203,
        -107.06183624267578,
        -111.54768371582031,
        -117.0995101928711,
        -114.2435531616211,
        -107.66144561767578,
        -107.3858642578125,
        -120.86323547363281,
        -123.1407699584961,
        -132.78656005859375,
        -124.98698425292969,
        -123.92039489746094,
        -125.68145751953125,
        -122.41044616699219,
        -115.47402954101562,
        -110.42211151123047,
        -100.61168670654297,
        -90.53280639648438,
        -81.74978637695312,
        -68.02588653564453,
        -57.0107307434082,
        -47.43137741088867,
        -47.45197677612305,
        -53.15717697143555,
        -58.38082504272461,
        -59.67214584350586,
        -59.36802291870117,
        -59.43564224243164,
        -59.48163986206055,
        -69.78080749511719,
        -74.18793487548828,
        -65.21167755126953,
        -55.57139205932617,
        -53.41360092163086,
        -53.3981819152832,
        -55.52681350708008,
        -59.735836029052734,
        -57.27781295776367,
        -49.163333892822266,
        -42.75100326538086,
        -45.39084243774414,
        -48.42290115356445,
        -63.27024459838867,
        -78.3586196899414,
        -84.39627075195312,
        -77.7323226928711,
        -82.846435546875,
        -94.72300720214844,
        -94.60513305664062,
        -97.73526763916016,
        -89.34082794189453,
        -79.94209289550781,
        -77.21110534667969,
        -86.86647033691406,
        -82.088623046875,
        -79.0764389038086,
        -82.28515625,
        -89.1360092163086,
        -91.53730010986328,
        -97.83822631835938,
        -92.09500122070312,
        -91.3006362915039,
        -96.29716491699219,
        -98.30770874023438,
        -101.43246459960938,
        -101.95246887207031,
        -101.04706573486328,
        -96.02134704589844,
        -90.54747009277344,
        -93.41000366210938,
        -88.68875122070312,
        -75.68023681640625,
        -71.84628295898438,
        -70.21210479736328,
        -72.18583679199219,
        -75.6641845703125,
        -83.86630249023438,
        -72.21450805664062,
        -67.21841430664062,
        -65.06930541992188,
        -61.2154426574707,
        -56.859615325927734,
        -58.598087310791016,
        -51.37459945678711,
        -42.04587936401367,
        -42.50669479370117,
        -51.05905532836914,
        -54.67812728881836,
        -52.158626556396484,
        -55.1207160949707,
        -56.58230972290039,
        -70.0547103881836,
        -95.69806671142578,
        -109.57221984863281,
        -115.94100952148438,
        -120.39373016357422,
        -126.8050308227539,
        -124.09403991699219,
        -109.83257293701172,
        -94.30304718017578,
        -81.33517456054688,
        -80.0870132446289,
        -80.23988342285156,
        -85.26365661621094,
        -77.81455993652344,
        -69.20732116699219,
        -66.28268432617188,
        -65.43740844726562,
        -74.24392700195312,
        -87.1195297241211,
        -83.52983856201172,
        -83.57955932617188,
        -89.79632568359375,
        -104.29170989990234,
        -116.11929321289062,
        -127.1836929321289,
        -128.57736206054688,
        -117.7587661743164,
        -112.74967956542969,
        -104.83749389648438,
        -103.37123107910156,
        -92.55470275878906,
        -84.86468505859375,
        -80.33403778076172,
        -71.2684555053711,
        -72.28927612304688,
        -67.25725555419922,
        -54.76754379272461,
        -49.49811935424805,
        -52.66220474243164,
        -53.569149017333984,
        -52.50131607055664,
        -55.68857955932617,
        -50.60392379760742,
        -45.84303665161133,
        -51.9431266784668,
        -54.1745491027832,
        -50.42855453491211,
        -53.08181381225586,
        -53.99601364135742,
        -50.03547286987305,
        -52.74532699584961,
        -69.62482452392578,
        -79.06734466552734,
        -91.09822082519531,
        -96.73780822753906,
        -97.31073760986328,
        -93.2444076538086,
        -90.14186096191406,
        -85.40708923339844,
        -75.89573669433594,
        -78.82374572753906,
        -80.5311050415039,
        -85.2389907836914,
        -82.55394744873047,
        -85.09774780273438,
        -79.68154907226562,
        -78.68727111816406,
        -82.40672302246094,
        -83.68348693847656,
        -89.92572784423828,
        -93.9043197631836,
        -93.27841186523438,
        -93.58675384521484,
        -97.02668762207031,
        -98.6332015991211,
        -101.0803451538086,
        -96.85504150390625,
        -85.26885986328125,
        -75.1299819946289,
        -71.29547882080078,
        -68.46182250976562,
        -72.37394714355469,
        -74.75447845458984,
        -74.23812866210938,
        -76.88298797607422,
        -79.01407623291016,
        -79.97865295410156,
        -78.11489868164062,
        -78.16758728027344,
        -76.35184478759766,
        -78.20703887939453,
        -70.6146011352539,
        -64.31300354003906,
        -55.9616813659668,
        -54.49251174926758,
        -59.613468170166016,
        -55.977054595947266,
        -51.10529708862305,
        -42.12698745727539,
        -44.82638168334961,
        -51.474918365478516,
        -63.708309173583984,
        -75.1673355102539,
        -76.6291275024414,
        -85.66014862060547,
        -83.61676788330078,
        -87.0397720336914,
        -93.63591003417969,
        -88.16060638427734,
        -81.34042358398438,
        -74.35435485839844,
        -83.55532836914062,
        -87.73932647705078,
        -91.43049621582031,
        -90.54095458984375,
        -87.71155548095703,
        -87.74079132080078,
        -98.57057189941406,
        -102.00804901123047,
        -96.71418762207031,
        -93.9682388305664,
        -100.83562469482422,
        -106.39122772216797,
        -100.53861999511719,
        -103.51167297363281,
        -95.45315551757812,
        -94.4056625366211,
        -90.20018768310547,
        -84.09715270996094,
        -69.51129913330078,
        -71.5345458984375,
        -76.4809799194336,
        -75.90240478515625,
        -83.3414077758789,
        -87.15302276611328,
        -84.32975006103516,
        -73.05665588378906,
        -77.92943572998047,
        -69.31981658935547,
        -66.84374237060547,
        -62.71061325073242,
        -54.73896408081055,
        -47.22769546508789,
        -38.60481643676758,
        -37.51076889038086,
        -39.20457077026367,
        -34.25038528442383,
        -32.374141693115234,
        -27.077714920043945,
        -29.910051345825195,
        -41.847293853759766,
        -57.79898452758789,
        -78.38595581054688,
        -78.57521057128906,
        -94.3736572265625,
        -99.7558822631836,
        -114.89956665039062,
        -113.61056518554688,
        -97.7976303100586,
        -90.08971405029297,
        -76.90190887451172,
        -79.15748596191406,
        -76.1344985961914,
        -75.68318176269531,
        -74.59343719482422,
        -75.17232513427734,
        -75.27499389648438,
        -87.21947479248047,
        -101.68376922607422,
        -104.54817199707031,
        -100.96707153320312,
        -102.31952667236328,
        -108.12100982666016,
        -120.68443298339844,
        -128.2144012451172,
        -126.00276184082031,
        -119.65216827392578,
        -107.06611633300781,
        -95.22486114501953,
        -80.50045776367188,
        -70.76448059082031,
        -69.71084594726562,
        -72.54792785644531,
        -76.38733673095703,
        -74.81735229492188,
        -75.58710479736328,
        -68.01570892333984,
        -80.49539184570312,
        -79.91548919677734,
        -69.8628158569336,
        -58.63058853149414,
        -51.907344818115234,
        -50.859004974365234,
        -51.42105484008789,
        -60.429386138916016,
        -52.016414642333984,
        -49.86167526245117,
        -45.06082534790039,
        -40.79459762573242,
        -38.33431625366211,
        -41.73197555541992,
        -51.13930130004883,
        -58.84897232055664,
        -66.1181411743164,
        -76.31349182128906,
        -75.70217895507812,
        -81.98739624023438,
        -94.275390625,
        -98.0008544921875,
        -92.97306060791016,
        -85.23731231689453,
        -84.6869125366211,
        -85.9056396484375,
        -89.3422622680664,
        -90.23054504394531,
        -81.76107025146484,
        -79.77227020263672,
        -92.39718627929688,
        -103.42282104492188,
        -109.35243225097656,
        -104.32393646240234,
        -104.3663330078125,
        -114.74618530273438,
        -124.78636932373047,
        -128.48118591308594,
        -117.92693328857422,
        -115.74574279785156,
        -104.76233673095703,
        -92.2523193359375,
        -83.44558715820312,
        -65.99188995361328,
        -55.99689865112305,
        -49.2685432434082,
        -58.40188980102539,
        -57.82375717163086,
        -63.794002532958984,
        -70.67537689208984,
        -71.07756805419922,
        -69.22431945800781,
        -65.53500366210938,
        -68.79712677001953,
        -69.29154205322266,
        -62.86603927612305,
        -50.69478225708008,
        -45.63057327270508,
        -41.432369232177734,
        -46.0092658996582,
        -46.85869216918945,
        -42.1515007019043,
        -34.11422348022461,
        -43.80659866333008,
        -59.12148666381836,
        -71.32305908203125,
        -87.79167175292969,
        -96.29267120361328,
        -92.8067855834961,
        -99.61519622802734,
        -102.4362564086914,
        -89.58389282226562,
        -76.20697784423828,
        -75.10765075683594,
        -75.68547058105469,
        -78.31614685058594,
        -86.5054702758789,
        -80.05989074707031,
        -72.90869903564453,
        -73.4374008178711,
        -88.13394927978516,
        -99.52305603027344,
        -114.22097778320312,
        -112.9054946899414,
        -118.42761993408203,
        -122.00733947753906,
        -133.49717712402344,
        -141.9142608642578,
        -141.3423309326172,
        -136.51123046875,
        -124.744140625,
        -121.31481170654297,
        -111.50463104248047,
        -97.95940399169922,
        -87.83243560791016,
        -75.11154174804688,
        -79.33386993408203,
        -82.186767578125,
        -84.89436340332031,
        -75.1494369506836,
        -65.7652359008789,
        -65.23624420166016,
        -65.79193115234375,
        -67.02916717529297,
        -56.33821487426758,
        -42.906002044677734,
        -34.95479202270508,
        -26.248743057250977,
        -21.912965774536133,
        -21.408662796020508,
        -19.03934669494629,
        -13.103555679321289,
        -16.965707778930664,
        -28.92119789123535,
        -34.96364974975586,
        -46.12052536010742,
        -59.190006256103516,
        -68.2315673828125,
        -75.79107666015625,
        -93.25017547607422,
        -96.16951751708984,
        -93.16081237792969,
        -86.42138671875,
        -84.27597045898438,
        -85.10042572021484,
        -86.4604263305664,
        -94.26738739013672,
        -89.39088439941406,
        -92.7547378540039,
        -98.7117919921875,
        -110.18352508544922,
        -126.3565902709961,
        -135.90267944335938,
        -126.82101440429688,
        -115.0,
        -114.3139877319336,
        -111.19524383544922,
        -109.75320434570312,
        -107.41313171386719,
        -96.55020141601562,
        -83.59551239013672,
        -83.18730163574219,
        -71.79419708251953,
        -60.67830276489258,
        -58.257083892822266,
        -58.8475227355957,
        -66.02742767333984,
        -74.01997375488281,
        -74.5947036743164,
        -71.97718048095703,
        -74.25727844238281,
        -79.17362976074219,
        -84.78053283691406,
        -84.17552185058594,
        -83.06390380859375,
        -78.08867645263672,
        -71.5740737915039,
        -68.23242950439453,
        -65.44203186035156,
        -59.1408805847168,
        -56.35934829711914,
        -56.1449089050293,
        -53.04195785522461,
        -47.59354019165039,
        -55.172420501708984,
        -58.00168991088867,
        -64.02470397949219,
        -77.6404037475586,
        -77.95035552978516,
        -81.8077163696289,
        -80.24007415771484,
        -80.72650909423828,
        -80.11430358886719,
        -83.896728515625,
        -91.13941955566406,
        -87.17707824707031,
        -82.54339599609375,
        -77.5301513671875,
        -76.84013366699219,
        -90.05157470703125,
        -94.1565933227539,
        -100.65860748291016,
        -103.95709991455078,
        -108.61608123779297,
        -119.6244888305664,
        -121.81847381591797,
        -123.37232208251953,
        -120.26072692871094,
        -123.30519104003906,
        -128.5730743408203,
        -130.753173828125,
        -129.79000854492188,
        -121.58623504638672,
        -111.8757553100586,
        -105.34178161621094,
        -100.08209991455078,
        -100.81183624267578,
        -97.27970123291016,
        -83.9739761352539,
        -77.31224060058594,
        -70.91360473632812,
        -65.17845153808594,
        -55.378047943115234,
        -55.23015213012695,
        -53.9655876159668,
        -47.28336715698242,
        -42.48716354370117,
        -34.54464340209961,
        -29.232141494750977,
        -29.786775588989258,
        -36.9810676574707,
        -31.8765811920166,
        -24.6385440826416,
        -27.374460220336914,
        -36.9621696472168,
        -44.128055572509766,
        -61.554935455322266,
        -70.26122283935547,
        -79.50114440917969,
        -89.0567855834961,
        -99.46347045898438,
        -93.9805908203125,
        -87.19695281982422,
        -88.36119842529297,
        -78.00975036621094,
        -81.89012908935547,
        -80.96419525146484,
        -78.57601928710938,
        -68.7965316772461,
        -79.1809310913086,
        -82.55068969726562,
        -83.05138397216797,
        -93.58590698242188,
        -100.93513488769531,
        -100.05332946777344,
        -104.59947204589844,
        -110.23861694335938,
        -107.39642333984375,
        -104.9072036743164,
        -111.398681640625,
        -106.84906005859375,
        -92.33547973632812,
        -84.57020568847656,
        -83.4468994140625,
        -74.67584228515625,
        -70.55123138427734,
        -79.20172882080078,
        -75.7957992553711,
        -69.79837036132812,
        -70.31442260742188,
        -70.76122283935547,
        -61.94074630737305,
        -62.55533981323242,
        -64.07652282714844,
        -59.129940032958984,
        -51.50742721557617,
        -47.638668060302734,
        -40.88959884643555,
        -34.31862258911133,
        -36.35189437866211,
        -38.25113296508789,
        -37.555789947509766,
        -37.934871673583984,
        -43.75801467895508,
        -56.69137191772461,
        -69.5133285522461,
        -89.8713607788086,
        -96.4990234375,
        -101.64791870117188,
        -103.25562286376953,
        -109.42713165283203,
        -107.58232879638672,
        -100.90103149414062,
        -97.9742431640625,
        -83.69625854492188,
        -81.18695068359375,
        -80.39236450195312,
        -77.0671615600586,
        -65.55035400390625,
        -76.59038543701172,
        -80.54253387451172,
        -93.95886993408203,
        -99.98451232910156,
        -98.90428161621094,
        -90.61109924316406,
        -91.69992065429688,
        -102.70578002929688,
        -100.19617462158203,
        -101.62787628173828,
        -96.23054504394531,
        -94.72164154052734,
        -88.4629898071289,
        -86.47917938232422,
        -82.72625732421875,
        -68.3514633178711,
        -60.39613723754883,
        -68.54576873779297,
        -70.5660171508789,
        -75.8460693359375,
        -82.07420349121094,
        -83.2843246459961,
        -78.57598876953125,
        -83.59215545654297,
        -89.27043914794922,
        -81.23530578613281,
        -78.53194427490234,
        -72.00135803222656,
        -64.2259292602539,
        -53.18375015258789,
        -51.981014251708984,
        -42.73414993286133,
        -36.019229888916016,
        -36.61601638793945,
        -38.37058639526367,
        -41.49757766723633,
        -52.00929641723633,
        -68.40222930908203,
        -81.7887954711914,
        -90.37830352783203,
        -98.79998779296875,
        -102.41075897216797,
        -95.17176818847656,
        -90.1590347290039,
        -86.71134185791016,
        -85.93728637695312,
        -79.07459259033203,
        -88.63860321044922,
        -87.52222442626953,
        -83.74891662597656,
        -90.90711212158203,
        -95.0889663696289,
        -89.0036849975586,
        -93.75813293457031,
        -103.86286926269531,
        -106.90065002441406,
        -115.7425308227539,
        -115.02743530273438,
        -115.52275085449219,
        -108.2084732055664,
        -103.60891723632812,
        -92.3840560913086,
        -86.44174194335938,
        -83.84239196777344,
        -73.77328491210938,
        -69.64380645751953,
        -59.47634506225586,
        -61.07120895385742,
        -61.75924301147461,
        -76.77202606201172,
        -75.29724884033203,
        -70.65875244140625,
        -64.83650970458984,
        -61.55772018432617,
        -65.76236724853516,
        -62.689579010009766,
        -65.5313720703125,
        -51.406490325927734,
        -43.493770599365234,
        -38.55832290649414,
        -37.965389251708984,
        -31.8366641998291,
        -31.19297981262207,
        -33.05172348022461,
        -34.074703216552734,
        -41.451351165771484,
        -58.9156379699707,
        -70.4118423461914,
        -78.92256927490234,
        -94.7509765625,
        -96.24110412597656,
        -102.9971694946289,
        -101.96100616455078,
        -101.26067352294922,
        -97.86272430419922,
        -97.49335479736328,
        -100.3997802734375,
        -100.40982818603516,
        -94.09578704833984,
        -89.18849182128906,
        -85.9188461303711,
        -91.18461608886719,
        -101.94188690185547,
        -117.69900512695312,
        -109.66625213623047,
        -104.47500610351562,
        -109.8913803100586,
        -113.47032165527344,
        -122.20384979248047,
        -121.44652557373047,
        -118.57939910888672,
        -95.00997161865234,
        -85.49022674560547,
        -79.95571899414062,
        -73.706787109375,
        -67.67121124267578,
        -68.0640869140625,
        -66.6263427734375,
        -61.48447799682617,
        -61.697086334228516,
        -60.708805084228516,
        -51.18252182006836,
        -46.12333297729492,
        -47.65346908569336,
        -44.09671401977539,
        -46.15504837036133,
        -45.211002349853516,
        -42.1842155456543,
        -38.076908111572266,
        -37.3276481628418,
        -33.33969497680664,
        -27.761056900024414,
        -28.35496711730957,
        -28.248117446899414,
        -28.30503273010254,
        -37.7885856628418,
        -49.03433609008789,
        -58.735286712646484,
        -75.99334716796875,
        -90.5501708984375,
        -93.30526733398438,
        -93.73626708984375,
        -95.9706802368164,
        -92.40324401855469,
        -90.60282897949219,
        -102.50241088867188,
        -108.97552490234375,
        -112.14354705810547,
        -107.63634490966797,
        -104.8168716430664,
        -96.9112548828125,
        -101.90214538574219,
        -117.47868347167969,
        -127.91693878173828,
        -118.85037994384766,
        -108.31809997558594,
        -107.62600708007812,
        -108.61734008789062,
        -113.41666412353516,
        -115.06330871582031,
        -106.11275482177734,
        -89.03987884521484,
        -79.97181701660156,
        -71.23953247070312,
        -67.84549713134766,
        -59.95090103149414,
        -66.56881713867188,
        -66.03046417236328,
        -71.7669677734375,
        -68.08097076416016,
        -69.68253326416016,
        -69.07894134521484,
        -72.04470825195312,
        -76.44261932373047,
        -71.62478637695312,
        -72.16567993164062,
        -70.02359008789062,
        -62.742549896240234,
        -56.797298431396484,
        -55.90504837036133,
        -50.33576583862305,
        -46.39815902709961,
        -40.17403793334961,
        -35.973331451416016,
        -31.555330276489258,
        -43.336849212646484,
        -57.29465866088867,
        -69.83441925048828,
        -79.68589782714844,
        -94.52725219726562,
        -100.89013671875,
        -99.93107604980469,
        -109.85587310791016,
        -102.71803283691406,
        -94.34140014648438,
        -91.04424285888672,
        -95.50484466552734,
        -93.1199722290039,
        -94.14830017089844,
        -88.72219848632812,
        -72.07313537597656,
        -65.33570098876953,
        -74.34102630615234,
        -91.11239624023438,
        -87.13976287841797,
        -87.77365112304688,
        -86.89031219482422,
        -95.84086608886719,
        -106.79138946533203,
        -112.79810333251953,
        -107.76243591308594,
        -92.14680480957031,
        -86.72534942626953,
        -82.93815612792969,
        -79.76813507080078,
        -82.46240234375,
        -84.04393005371094,
        -88.91033935546875,
        -83.60618591308594,
        -86.48810577392578,
        -84.48286437988281,
        -85.6249771118164,
        -87.49585723876953,
        -86.93683624267578,
        -80.04996490478516,
        -74.2293472290039,
        -67.7715072631836,
        -58.53451919555664,
        -46.477474212646484,
        -44.29366683959961,
        -40.23613357543945,
        -37.940799713134766,
        -35.709598541259766,
        -36.21977615356445,
        -40.98453140258789,
        -44.41521072387695,
        -67.0905990600586,
        -67.24134826660156,
        -79.75709533691406,
        -83.13721466064453,
        -92.31969451904297,
        -96.70389556884766,
        -104.30511474609375,
        -105.78453826904297,
        -101.1319808959961,
        -96.43391418457031,
        -93.20172119140625,
        -92.4798355102539,
        -91.74051666259766,
        -89.87493896484375,
        -82.72257995605469,
        -78.56175994873047,
        -88.13847351074219,
        -97.40518188476562,
        -100.76277923583984,
        -99.53361511230469,
        -96.6109848022461,
        -92.310546875,
        -92.35449981689453,
        -101.85551452636719,
        -88.85678100585938,
        -90.77669525146484,
        -82.80902862548828,
        -74.19322204589844,
        -73.73442077636719,
        -75.96158599853516,
        -80.09542846679688,
        -83.01384735107422,
        -88.50019836425781,
        -84.98403930664062,
        -86.75089263916016,
        -90.3084716796875,
        -85.3051528930664,
        -80.90628814697266,
        -70.91191864013672,
        -67.16948699951172,
        -56.761409759521484,
        -51.9230842590332,
        -45.85829544067383,
        -39.267147064208984,
        -36.07784652709961,
        -29.683481216430664,
        -23.55570411682129,
        -17.099023818969727,
        -23.5447940826416,
        -25.346345901489258,
        -30.434694290161133,
        -44.31462478637695,
        -57.15633010864258,
        -67.14617156982422,
        -74.44061279296875,
        -83.35128021240234,
        -90.35405731201172,
        -101.26055145263672,
        -101.00984954833984,
        -98.36650085449219,
        -96.84903717041016,
        -106.95724487304688,
        -118.07457733154297,
        -121.0135269165039,
        -122.53157806396484,
        -117.9931411743164,
        -127.79731750488281,
        -134.35479736328125,
        -136.9893341064453,
        -126.28802490234375,
        -118.9913101196289,
        -112.98941040039062,
        -113.6042709350586,
        -108.26850128173828,
        -98.04573059082031,
        -79.194091796875,
        -65.83695220947266,
        -57.483219146728516,
        -53.23964309692383,
        -45.278324127197266,
        -38.24544143676758,
        -39.969486236572266,
        -44.39201736450195,
        -61.76273727416992,
        -73.71511840820312,
        -73.17681121826172,
        -68.18238830566406,
        -67.10044860839844,
        -71.17581939697266,
        -72.89763641357422,
        -73.93092346191406,
        -63.3142204284668,
        -52.103328704833984,
        -51.300960540771484,
        -52.664669036865234,
        -48.70415115356445,
        -40.1486701965332,
        -37.2061653137207,
        -39.52553939819336,
        -46.58000564575195,
        -56.8005256652832,
        -65.21005249023438,
        -73.00460815429688,
        -87.26811981201172,
        -94.6654052734375,
        -102.1823959350586,
        -100.49833679199219,
        -89.74923706054688,
        -86.53349304199219,
        -84.522216796875,
        -79.36043548583984,
        -77.1513442993164,
        -82.88101959228516,
        -80.41390991210938,
        -76.42523193359375,
        -85.70803833007812,
        -87.1508560180664,
        -88.67377471923828,
        -96.35736846923828,
        -97.38143920898438,
        -97.71780395507812,
        -100.05325317382812,
        -107.10897827148438,
        -106.61511993408203,
        -105.1692886352539,
        -99.27545166015625,
        -87.98925018310547,
        -78.6640396118164,
        -71.203369140625,
        -69.039306640625,
        -64.9210433959961,
        -72.70184326171875,
        -83.54837036132812,
        -96.01664733886719,
        -98.35794067382812,
        -100.10328674316406,
        -96.2120590209961,
        -95.44758605957031,
        -92.03317260742188,
        -84.78772735595703,
        -74.35449981689453,
        -65.40557861328125,
        -59.012203216552734,
        -49.10920333862305,
        -42.69166946411133,
        -39.61631393432617,
        -36.59653854370117,
        -28.972131729125977,
        -29.223909378051758,
        -35.434818267822266,
        -47.71846389770508,
        -66.30647277832031,
        -77.47943878173828,
        -89.51400756835938,
        -99.1744613647461,
        -104.67158508300781,
        -106.77156829833984,
        -102.12606048583984,
        -101.0001449584961,
        -97.9876937866211,
        -101.18189239501953,
        -89.93934631347656,
        -87.3791275024414,
        -90.9741439819336,
        -83.05261993408203,
        -78.70152282714844,
        -78.45359802246094,
        -86.29629516601562,
        -84.46744537353516,
        -87.30781555175781,
        -89.12223815917969,
        -84.55561065673828,
        -90.70328521728516,
        -98.55210876464844,
        -101.52698516845703,
        -89.55684661865234,
        -86.71586608886719,
        -80.38433837890625,
        -71.15978240966797,
        -76.32205200195312,
        -78.70896911621094,
        -77.62690734863281,
        -78.0447998046875,
        -80.88524627685547,
        -74.70802307128906,
        -66.92640686035156,
        -68.78340911865234,
        -69.25199890136719,
        -66.73716735839844,
        -60.89834213256836,
        -57.365291595458984,
        -53.7701530456543,
        -51.28816604614258,
        -55.000736236572266,
        -58.77250289916992,
        -60.6844367980957,
        -61.06381607055664,
        -58.429141998291016,
        -55.31583023071289,
        -61.31166458129883,
        -70.70919799804688,
        -77.57357025146484,
        -76.7738265991211,
        -78.23038482666016,
        -73.87397003173828,
        -73.8280029296875,
        -71.65103149414062,
        -65.13291931152344,
        -54.47318649291992,
        -49.48073959350586,
        -48.9805793762207,
        -53.72036361694336,
        -60.134090423583984,
        -74.77982330322266,
        -72.30146789550781,
        -77.97367858886719,
        -94.75863647460938,
        -112.63740539550781,
        -118.65226745605469,
        -121.65983581542969,
        -123.13697814941406,
        -114.5298080444336,
        -120.27186584472656,
        -123.50743865966797,
        -123.38587188720703,
        -111.50370788574219,
        -104.15464782714844,
        -87.54153442382812,
        -68.76834106445312,
        -57.10654067993164,
        -51.18514633178711,
        -49.459651947021484,
        -53.46062088012695,
        -65.47323608398438,
        -63.39949417114258,
        -52.48301315307617,
        -51.80851364135742,
        -55.54706954956055,
        -57.894718170166016,
        -58.94697952270508,
        -59.277591705322266,
        -53.37126541137695,
        -50.2548942565918,
        -52.33726119995117,
        -62.49588394165039,
        -63.78487014770508,
        -71.75334930419922,
        -77.07586669921875,
        -71.75898742675781,
        -79.41545104980469,
        -85.55414581298828,
        -102.98699951171875,
        -109.9449462890625,
        -125.5465087890625,
        -124.91041564941406,
        -116.67906188964844,
        -112.25173950195312,
        -103.55712890625,
        -97.62977600097656,
        -87.007568359375,
        -84.6072998046875,
        -81.19015502929688,
        -76.56324005126953,
        -69.7251968383789,
        -63.115718841552734,
        -64.37816619873047,
        -71.7754898071289,
        -76.6681900024414,
        -71.93480682373047,
        -73.82331085205078,
        -76.04642486572266,
        -83.04471588134766,
        -87.58307647705078,
        -86.75619506835938,
        -91.74148559570312,
        -94.1451416015625,
        -91.32979583740234,
        -79.6425552368164,
        -80.61944580078125,
        -85.24855041503906,
        -81.3590087890625,
        -87.0011215209961,
        -86.00120544433594,
        -91.86502838134766,
        -95.3442153930664,
        -96.40959167480469,
        -98.10259246826172,
        -81.31495666503906,
        -73.45429229736328,
        -68.16159057617188,
        -66.1075668334961,
        -49.406795501708984,
        -42.54410934448242,
        -40.35261917114258,
        -31.58976173400879,
        -32.72829055786133,
        -34.034664154052734,
        -29.613344192504883,
        -25.76115608215332,
        -35.82564163208008,
        -43.96467208862305,
        -51.15488815307617,
        -73.73163604736328,
        -85.84782409667969,
        -99.51527404785156,
        -110.52560424804688,
        -123.64732360839844,
        -115.950927734375,
        -106.56452941894531,
        -104.72650909423828,
        -98.33203125,
        -102.79949188232422,
        -103.67874908447266,
        -104.81253814697266,
        -96.99147033691406,
        -103.44325256347656,
        -103.47404479980469,
        -105.68257141113281,
        -107.34186553955078,
        -113.61107635498047,
        -110.31073760986328,
        -114.62301635742188,
        -123.71605682373047,
        -130.22567749023438,
        -126.80361938476562,
        -120.85440826416016,
        -114.20915985107422,
        -103.61835479736328,
        -104.2750015258789,
        -86.41630554199219,
        -71.82877349853516,
        -62.73311233520508,
        -65.51136016845703,
        -65.86334228515625,
        -72.86190795898438,
        -69.1549301147461,
        -56.406551361083984,
        -54.95071792602539,
        -59.253780364990234,
        -59.41756057739258,
        -63.05373001098633,
        -60.61574935913086,
        -50.366329193115234,
        -43.426761627197266,
        -41.37734603881836,
        -43.722537994384766,
        -41.20164108276367,
        -37.30948257446289,
        -36.78085708618164,
        -35.62361526489258,
        -38.53081130981445,
        -47.58394241333008,
        -54.142452239990234,
        -57.63242721557617,
        -60.16359329223633,
        -63.67890548706055,
        -62.11489486694336,
        -60.9152717590332,
        -61.86801528930664,
        -61.9669303894043,
        -64.8098373413086,
        -69.07431030273438,
        -70.68629455566406,
        -69.59830474853516,
        -77.57176971435547,
        -84.4581069946289,
        -96.97337341308594,
        -103.77491760253906,
        -106.859375,
        -104.21171569824219,
        -103.89293670654297,
        -107.08241271972656,
        -103.93194580078125,
        -114.80047607421875,
        -107.5171127319336,
        -106.28749084472656,
        -100.34867858886719,
        -99.18968963623047,
        -83.12928771972656,
        -76.15733337402344,
        -76.71257781982422,
        -65.71852111816406,
        -68.23175048828125,
        -64.5757064819336,
        -68.27781677246094,
        -65.423583984375,
        -70.18448638916016,
        -72.54924774169922,
        -73.51773834228516,
        -75.72222137451172,
        -72.12004852294922,
        -67.18269348144531,
        -63.25180435180664,
        -53.94292068481445,
        -51.11760330200195,
        -47.180973052978516,
        -44.772518157958984,
        -46.67478561401367,
        -36.0792121887207,
        -36.116512298583984,
        -38.87527847290039,
        -50.62165451049805,
        -57.84390640258789,
        -70.4259033203125,
        -78.20368194580078,
        -76.18228912353516,
        -85.63134765625,
        -88.44041442871094,
        -86.28629302978516,
        -84.4178237915039,
        -85.35922241210938,
        -85.33271026611328,
        -79.75656127929688,
        -85.05939483642578,
        -86.43556213378906,
        -78.12492370605469,
        -88.36710357666016,
        -107.16868591308594,
        -123.27339935302734,
        -128.2144775390625,
        -127.59322357177734,
        -127.88371276855469,
        -124.87376403808594,
        -130.6883544921875,
        -126.81704711914062,
        -119.04267883300781,
        -114.58125305175781,
        -99.60301208496094,
        -91.75218963623047,
        -77.8291015625,
        -68.59435272216797,
        -65.27972412109375,
        -64.1634292602539,
        -61.497798919677734,
        -54.459415435791016,
        -50.817874908447266,
        -43.51639175415039,
        -43.45309066772461,
        -45.80160140991211,
        -39.54533767700195,
        -38.85097885131836,
        -34.36702346801758,
        -31.792200088500977,
        -33.50764846801758,
        -35.72134780883789,
        -36.0720329284668,
        -41.80008316040039,
        -50.656734466552734,
        -43.35049819946289,
        -50.498897552490234,
        -55.44454574584961,
        -65.59236145019531,
        -79.71260833740234,
        -95.29094696044922,
        -105.05625915527344,
        -109.1930923461914,
        -113.99122619628906,
        -104.30622863769531,
        -103.17552947998047,
        -98.94344329833984,
        -101.6070327758789,
        -96.37332153320312,
        -92.56324005126953,
        -91.70266723632812,
        -88.8217544555664,
        -80.72386169433594,
        -84.3789291381836,
        -91.81898498535156,
        -94.49259185791016,
        -96.0552749633789,
        -93.28079223632812,
        -86.69832611083984,
        -90.24832153320312,
        -98.75284576416016,
        -97.25347900390625,
        -94.21458435058594,
        -85.93942260742188,
        -84.31486511230469,
        -75.15033721923828,
        -70.22925567626953,
        -70.44434356689453,
        -67.82219696044922,
        -76.0815658569336,
        -86.36617279052734,
        -92.24832916259766,
        -84.57808685302734,
        -86.77141571044922,
        -84.93531799316406,
        -83.33588409423828,
        -82.8785629272461,
        -76.11277770996094,
        -60.59001541137695,
        -51.1144905090332,
        -49.039493560791016,
        -42.81645584106445,
        -47.79176712036133,
        -43.336910247802734,
        -37.150821685791016,
        -33.24435806274414,
        -43.19411849975586,
        -50.12735366821289,
        -56.96860885620117,
        -69.27326202392578,
        -71.15182495117188,
        -78.5013656616211,
        -95.31901550292969,
        -102.89579010009766,
        -100.39657592773438,
        -95.58876037597656,
        -90.09627532958984,
        -87.21385192871094,
        -85.32862091064453,
        -82.50634765625,
        -78.5218734741211,
        -81.54459381103516,
        -78.49110412597656,
        -81.03123474121094,
        -85.9649887084961,
        -81.32498168945312,
        -91.70950317382812,
        -101.12297821044922,
        -111.3600082397461,
        -119.01303100585938,
        -117.0406494140625,
        -120.45069122314453,
        -114.65869903564453,
        -109.396728515625,
        -98.03050231933594,
        -90.99759674072266,
        -89.06773376464844,
        -76.28612518310547,
        -76.50296783447266,
        -66.70747375488281,
        -66.65279388427734,
        -70.10916900634766,
        -70.915283203125,
        -73.48159790039062,
        -67.20120239257812,
        -65.06533813476562,
        -62.4906120300293,
        -66.33828735351562,
        -65.20698547363281,
        -60.437923431396484,
        -55.13931655883789,
        -52.56229782104492,
        -47.38596725463867,
        -46.395992279052734,
        -47.577571868896484,
        -44.5192985534668,
        -45.92570877075195,
        -45.4516487121582,
        -50.1612434387207,
        -54.03476333618164,
        -65.07069396972656,
        -72.03679656982422,
        -72.06845092773438,
        -72.09614562988281,
        -69.5649185180664,
        -73.34032440185547,
        -66.67572784423828,
        -64.22406768798828,
        -64.03582000732422,
        -62.01035690307617,
        -62.88373947143555,
        -68.32683563232422,
        -74.65582275390625,
        -78.70964813232422,
        -95.99412536621094,
        -106.17477416992188,
        -107.7255859375,
        -109.38123321533203,
        -113.74366760253906,
        -114.92337799072266,
        -118.2402114868164,
        -123.17749786376953,
        -119.40913391113281,
        -104.68124389648438,
        -97.59857177734375,
        -87.88689422607422,
        -70.23483276367188,
        -68.30813598632812,
        -66.26264953613281,
        -64.50301361083984,
        -64.02753448486328,
        -63.32722854614258,
        -58.44902420043945,
        -52.79702377319336,
        -53.470333099365234,
        -50.381954193115234,
        -48.0101203918457,
        -54.11454391479492,
        -51.76804733276367,
        -52.476810455322266,
        -48.33578872680664,
        -51.78046798706055,
        -51.63327407836914,
        -49.70180892944336,
        -50.966243743896484,
        -48.13905715942383,
        -49.66987228393555,
        -53.87916946411133,
        -61.38088607788086,
        -65.66068267822266,
        -73.49057006835938,
        -83.29925537109375,
        -90.35089111328125,
        -92.0892562866211,
        -100.01071166992188,
        -91.68335723876953,
        -81.69512939453125,
        -75.19239044189453,
        -78.73664855957031,
        -74.76481628417969,
        -79.42568969726562,
        -78.30958557128906,
        -68.6590805053711,
        -75.19132232666016,
        -82.6893310546875,
        -91.99474334716797,
        -93.40990447998047,
        -98.79141998291016,
        -94.58436584472656,
        -99.87861633300781,
        -104.1377944946289,
        -104.3208236694336,
        -101.44474792480469,
        -105.48404693603516,
        -108.7375717163086,
        -111.19276428222656,
        -104.40126037597656,
        -94.4968490600586,
        -95.5461196899414,
        -95.00821685791016,
        -96.4090805053711,
        -90.05038452148438,
        -81.7892074584961,
        -69.22062683105469,
        -57.06888961791992,
        -51.30440139770508,
        -50.33834457397461,
        -51.20102310180664,
        -46.95870590209961,
        -43.7042350769043,
        -41.90827560424805,
        -41.75143814086914,
        -43.813785552978516,
        -45.90927505493164,
        -43.87698745727539,
        -40.468021392822266,
        -42.05058670043945,
        -47.3054313659668,
        -61.11745834350586,
        -70.03888702392578,
        -82.28235626220703,
        -89.43325805664062,
        -91.47189331054688,
        -94.32495880126953,
        -103.98336791992188,
        -100.41610717773438,
        -93.23351287841797,
        -89.01806640625,
        -80.94843292236328,
        -70.7908935546875,
        -69.36412811279297,
        -76.34369659423828,
        -68.54080963134766,
        -74.76289367675781,
        -84.21479797363281,
        -94.44338989257812,
        -98.44168090820312,
        -104.53633117675781,
        -101.23481750488281,
        -104.04293823242188,
        -112.5400161743164,
        -114.8165512084961,
        -114.75924682617188,
        -111.45348358154297,
        -107.02228546142578,
        -100.16521453857422,
        -96.7219009399414,
        -90.48865509033203,
        -82.98247528076172,
        -79.32874298095703,
        -78.35934448242188,
        -81.88937377929688,
        -79.74317932128906,
        -84.35679626464844,
        -78.52649688720703,
        -72.3875961303711,
        -68.00896453857422,
        -58.30202865600586,
        -49.72148513793945,
        -39.05744552612305,
        -40.16025161743164,
        -34.769046783447266,
        -39.6598014831543,
        -38.75203323364258,
        -41.626346588134766,
        -38.504825592041016,
        -36.880924224853516,
        -46.46780776977539,
        -56.477779388427734,
        -75.86234283447266,
        -81.79286193847656,
        -84.28839874267578,
        -85.69767761230469,
        -91.07396697998047,
        -94.29959106445312,
        -91.99931335449219,
        -82.3901596069336,
        -68.46692657470703,
        -62.16140365600586,
        -61.19613265991211,
        -61.958003997802734,
        -63.0294075012207,
        -61.02854537963867,
        -55.941287994384766,
        -60.182064056396484,
        -70.10193634033203,
        -69.43323516845703,
        -64.34437561035156,
        -61.177059173583984,
        -72.46711730957031,
        -84.02986907958984,
        -88.3724365234375,
        -91.85639190673828,
        -87.57887268066406,
        -87.95487976074219,
        -90.64500427246094,
        -95.48373413085938,
        -92.34805297851562,
        -87.53073120117188,
        -94.42475891113281,
        -100.26162719726562,
        -107.1260986328125,
        -108.26307678222656,
        -104.22594451904297,
        -96.31095886230469,
        -88.90914154052734,
        -86.37714385986328,
        -83.32547760009766,
        -67.89081573486328,
        -63.121395111083984,
        -54.56623458862305,
        -47.58823776245117,
        -43.15005874633789,
        -38.22389602661133,
        -32.99568557739258,
        -26.168703079223633,
        -33.65495681762695,
        -32.77547073364258,
        -40.80238723754883,
        -53.7176399230957,
        -62.202022552490234,
        -74.19532012939453,
        -85.94207763671875,
        -95.00991821289062,
        -94.28329467773438,
        -98.3388442993164,
        -98.53102111816406,
        -92.88681030273438,
        -96.42009735107422,
        -105.03091430664062,
        -111.01506042480469,
        -107.7459487915039,
        -97.7265396118164,
        -86.45227813720703,
        -95.15444946289062,
        -111.92880249023438,
        -115.5138931274414,
        -107.14784240722656,
        -103.96984100341797,
        -104.76472473144531,
        -101.23287200927734,
        -101.1119613647461,
        -94.24247741699219,
        -80.22798919677734,
        -71.84970092773438,
        -68.13185119628906,
        -60.64906692504883,
        -61.77936935424805,
        -69.05481719970703,
        -77.536865234375,
        -77.8232192993164,
        -93.89816284179688,
        -90.95590209960938,
        -87.46949005126953,
        -84.7894287109375,
        -79.7797622680664,
        -76.33061218261719,
        -72.83103942871094,
        -73.08504486083984,
        -64.47298431396484,
        -49.990047454833984,
        -43.42776870727539,
        -37.74404525756836,
        -35.88108444213867,
        -31.08867835998535,
        -29.394594192504883,
        -31.162988662719727,
        -35.1254768371582,
        -47.57765579223633,
        -63.1299934387207,
        -65.7523193359375,
        -75.0780258178711,
        -92.6512680053711,
        -95.3395004272461,
        -99.94523620605469,
        -103.45650482177734,
        -108.4572525024414,
        -100.13794708251953,
        -118.14535522460938,
        -120.97159576416016,
        -116.7602767944336,
        -107.08246612548828,
        -100.53956604003906,
        -86.08518981933594,
        -95.04109954833984,
        -104.63301086425781,
        -104.12205505371094,
        -102.16526794433594,
        -112.98177337646484,
        -111.52565002441406,
        -106.79017639160156,
        -105.59231567382812,
        -97.8816909790039,
        -89.64085388183594,
        -72.83222961425781,
        -71.76289367675781,
        -56.80976486206055,
        -56.20926284790039,
        -58.12692642211914,
        -65.79786682128906,
        -64.60885620117188,
        -73.48043060302734,
        -79.21060180664062,
        -75.87552642822266,
        -85.59590911865234,
        -100.77229309082031,
        -104.32328033447266,
        -104.07025146484375,
        -104.4648666381836,
        -99.54913330078125,
        -87.73502349853516,
        -79.37159729003906,
        -69.58356475830078,
        -51.951969146728516,
        -53.783138275146484,
        -53.11335372924805,
        -52.85880661010742,
        -45.93290328979492,
        -47.2595329284668,
        -48.490352630615234,
        -49.67288589477539,
        -59.615352630615234,
        -55.42472457885742,
        -50.81155014038086,
        -46.9528694152832,
        -55.51955795288086,
        -65.90066528320312,
        -70.02530670166016,
        -74.32035827636719,
        -73.0872802734375,
        -74.2283706665039,
        -80.00774383544922,
        -89.0363540649414,
        -88.20671844482422,
        -92.86205291748047,
        -105.02964782714844,
        -111.67608642578125,
        -123.20114135742188,
        -126.92708587646484,
        -126.75332641601562,
        -120.8569107055664,
        -124.16846466064453,
        -124.76019287109375,
        -110.3082046508789,
        -103.9616470336914,
        -91.30260467529297,
        -75.28787994384766,
        -65.02957153320312,
        -57.4494514465332,
        -53.03633499145508,
        -50.92075729370117,
        -56.653377532958984,
        -53.059505462646484,
        -57.91276168823242,
        -58.92084884643555,
        -54.1473274230957,
        -50.597164154052734,
        -53.627567291259766,
        -51.794742584228516,
        -48.03457260131836,
        -47.329898834228516,
        -45.1015739440918,
        -39.060848236083984,
        -43.567203521728516,
        -54.48784255981445,
        -56.371089935302734,
        -61.023494720458984,
        -71.14994049072266,
        -71.17047882080078,
        -77.41507720947266,
        -94.8621826171875,
        -102.48200225830078,
        -101.67936706542969,
        -93.39148712158203,
        -87.7335433959961,
        -83.50303649902344,
        -76.83341979980469,
        -74.11337280273438,
        -70.98207092285156,
        -70.84866333007812,
        -76.00157165527344,
        -88.76619720458984,
        -90.68567657470703,
        -84.01461791992188,
        -90.64364624023438,
        -101.9129409790039,
        -111.3651123046875,
        -106.76215362548828,
        -99.17485046386719,
        -95.29989624023438,
        -100.09063720703125,
        -106.63331604003906,
        -108.89617919921875,
        -96.126953125,
        -83.86608123779297,
        -78.24311065673828,
        -72.9444808959961,
        -64.11859893798828,
        -56.154048919677734,
        -57.53438186645508,
        -58.235225677490234,
        -63.74534225463867,
        -66.05711364746094,
        -66.03389739990234,
        -62.04475021362305,
        -61.45248031616211,
        -66.6194076538086,
        -68.78330993652344,
        -73.416259765625,
        -62.2695198059082,
        -53.878047943115234,
        -54.64749526977539,
        -57.07954025268555,
        -60.92618179321289,
        -60.60700607299805,
        -53.92522048950195,
        -49.52699661254883,
        -56.68638229370117,
        -69.99927520751953,
        -80.42272186279297,
        -94.20578002929688,
        -91.54252624511719,
        -94.04847717285156,
        -92.7886962890625,
        -89.86015319824219,
        -85.08390808105469,
        -82.40324401855469,
        -77.2556381225586,
        -80.30268096923828,
        -87.22190856933594,
        -75.67912292480469,
        -73.03032684326172,
        -77.34225463867188,
        -78.42227172851562,
        -81.72662353515625,
        -92.04584503173828,
        -97.11605072021484,
        -92.49199676513672,
        -95.73948669433594,
        -96.01139831542969,
        -101.09394073486328,
        -104.29426574707031,
        -104.00920104980469,
        -101.84598541259766,
        -91.35630798339844,
        -84.1312026977539,
        -70.95895385742188,
        -73.87349700927734,
        -67.04911041259766,
        -66.63097381591797,
        -66.91719818115234,
        -65.91787719726562,
        -66.00917053222656,
        -66.03263092041016,
        -66.00243377685547,
        -61.92887496948242,
        -67.28997039794922,
        -73.06363677978516,
        -69.4512939453125,
        -64.43080139160156,
        -59.8368034362793,
        -57.412662506103516,
        -56.33827590942383,
        -52.52530288696289,
        -44.462703704833984,
        -37.022396087646484,
        -39.00239944458008,
        -36.98115921020508,
        -45.79007339477539,
        -52.46352005004883,
        -61.07004165649414,
        -71.31564331054688,
        -90.7383804321289,
        -102.800537109375,
        -95.53578186035156,
        -92.70146942138672,
        -83.70647430419922,
        -80.6358871459961,
        -81.6925048828125,
        -79.00249481201172,
        -84.53355407714844,
        -91.98831939697266,
        -100.24557495117188,
        -100.07984161376953,
        -102.53006744384766,
        -112.96060943603516,
        -115.93634033203125,
        -125.32181549072266,
        -122.29145812988281,
        -124.07141876220703,
        -132.07334899902344,
        -134.53932189941406,
        -133.12440490722656,
        -128.3660888671875,
        -118.94927978515625,
        -93.89889526367188,
        -76.10669708251953,
        -76.36621856689453,
        -65.98341369628906,
        -63.849613189697266,
        -71.36404418945312,
        -68.32183837890625,
        -62.385005950927734,
        -57.77305221557617,
        -51.65268325805664,
        -36.1771354675293,
        -33.387943267822266,
        -35.69930648803711,
        -32.05695724487305,
        -33.692874908447266,
        -34.53816604614258,
        -37.61113357543945,
        -32.3279914855957,
        -34.01034164428711,
        -40.297664642333984,
        -37.72626876831055,
        -43.892208099365234,
        -48.544734954833984,
        -61.61207962036133,
        -73.6873779296875,
        -96.25228881835938,
        -106.66111755371094,
        -105.84432220458984,
        -110.05410766601562,
        -103.6950912475586,
        -99.88357543945312,
        -91.10684967041016,
        -85.82063293457031,
        -82.85548400878906,
        -79.27973175048828,
        -86.53382873535156,
        -94.2163314819336,
        -88.66822814941406,
        -80.03773498535156,
        -81.32768249511719,
        -90.46598815917969,
        -98.56288146972656,
        -107.08572387695312,
        -101.22693634033203,
        -97.6149673461914,
        -104.07903289794922,
        -110.49372100830078,
        -112.58576965332031,
        -111.2225112915039,
        -100.30757141113281,
        -84.38958740234375,
        -78.02305603027344,
        -72.0807113647461,
        -68.0929946899414,
        -67.16282653808594,
        -62.68899154663086,
        -62.930912017822266,
        -61.40335464477539,
        -66.18476104736328,
        -61.047725677490234,
        -61.1340217590332,
        -65.01454162597656,
        -64.2354736328125,
        -64.91829681396484,
        -60.52762222290039,
        -59.96128463745117,
        -55.77272415161133,
        -56.58797836303711,
        -59.50351333618164,
        -57.4063606262207,
        -59.90034866333008,
        -50.40267562866211,
        -45.70952224731445,
        -52.71706008911133,
        -59.71503829956055,
        -74.23295593261719,
        -89.4351806640625,
        -102.74420928955078,
        -101.84138488769531,
        -99.04129028320312,
        -101.56665802001953,
        -96.7006607055664,
        -95.89250946044922,
        -87.61652374267578,
        -86.02020263671875,
        -86.46468353271484,
        -83.97208404541016,
        -91.98486328125,
        -90.55311584472656,
        -92.49822998046875,
        -98.99622344970703,
        -102.39449310302734,
        -95.48461151123047,
        -90.79766082763672,
        -98.04772186279297,
        -97.94933319091797,
        -105.0005111694336,
        -104.7631607055664,
        -92.0512924194336,
        -78.19487762451172,
        -66.17626953125,
        -60.16813278198242,
        -51.604610443115234,
        -53.8314323425293,
        -53.1426887512207,
        -62.74776077270508,
        -71.42265319824219,
        -73.86778259277344,
        -69.67631530761719,
        -62.5300407409668,
        -63.31277847290039,
        -62.51328659057617,
        -58.4043083190918,
        -52.14695358276367,
        -47.60355758666992,
        -43.48386764526367,
        -43.695919036865234,
        -49.87429428100586,
        -49.997318267822266,
        -49.194698333740234,
        -45.874202728271484,
        -43.52217483520508,
        -52.51192092895508,
        -67.23892974853516,
        -80.56486511230469,
        -92.3514404296875,
        -110.96932983398438,
        -122.606201171875,
        -127.68316650390625,
        -126.02597045898438,
        -119.65289306640625,
        -108.33086395263672,
        -104.44453430175781,
        -102.06535339355469,
        -99.71190643310547,
        -93.1852035522461,
        -94.49436950683594,
        -94.85086822509766,
        -89.3303451538086,
        -91.98651885986328,
        -93.75762176513672,
        -91.55945587158203,
        -86.3293228149414,
        -90.67166137695312,
        -90.65332794189453,
        -92.6762466430664,
        -97.00164031982422,
        -101.84325408935547,
        -92.1422348022461,
        -79.05352783203125,
        -62.99159622192383,
        -44.16044235229492,
        -38.158512115478516,
        -42.9021110534668,
        -55.54843521118164,
        -72.14786529541016,
        -82.29194641113281,
        -69.17192840576172,
        -56.457218170166016,
        -56.3812141418457,
        -67.50709533691406,
        -83.648193359375,
        -107.88957214355469,
        -126.40351104736328,
        -135.15016174316406,
        -119.44245147705078,
        -94.66139221191406,
        -76.12834167480469,
        -66.1823959350586,
        -71.80184936523438,
        -80.51728820800781,
        -90.41656494140625,
        -99.434814453125,
        -100.5714340209961,
        -81.78643798828125,
        -74.43728637695312,
        -66.68968200683594,
        -62.53505325317383,
        -63.0467643737793,
        -57.352474212646484,
        -52.63422775268555,
        -49.20559310913086,
        -37.17964553833008,
        -20.582582473754883,
        -8.620355606079102,
        1.3584040403366089,
        9.656026840209961,
        6.906621932983398,
        3.7575433254241943,
        2.081807851791382,
        -5.648279190063477,
        -15.444925308227539,
        -21.056291580200195,
        -8.927972793579102,
        -9.971338272094727,
        -15.096460342407227,
        -24.27738380432129,
        -31.55364418029785,
        -31.90049934387207,
        -21.23661231994629,
        -12.172067642211914,
        -9.577661514282227,
        -10.663980484008789,
        -14.466897964477539,
        -11.800142288208008,
        -12.737443923950195,
        -11.139116287231445,
        -12.89488410949707,
        -12.709299087524414,
        -14.04411506652832,
        -13.263063430786133,
        -9.181863784790039,
        -4.229730606079102,
        -1.2579442262649536,
        5.367132186889648,
        8.182317733764648,
        8.353780746459961,
        11.047628402709961,
        14.722478866577148,
        14.616506576538086,
        18.916189193725586,
        20.941701889038086,
        17.093618392944336,
        13.341985702514648,
        6.683767318725586,
        -3.2455999851226807,
        -12.167398452758789,
        -17.305673599243164,
        -29.53428077697754,
        -31.25437355041504,
        -34.506771087646484,
        -34.8464241027832,
        -33.37437057495117,
        -28.83738899230957,
        -26.570131301879883,
        -28.684717178344727,
        -28.87163734436035,
        -34.51780319213867,
        -28.372926712036133,
        -27.550188064575195,
        -24.270936965942383,
        -30.750612258911133,
        -39.49673843383789,
        -38.22666549682617,
        -37.79288864135742,
        -33.34554672241211,
        -35.0245246887207,
        -33.8908576965332,
        -34.47470474243164,
        -28.922761917114258,
        -24.283327102661133,
        -23.113344192504883,
        -19.474802017211914,
        -21.3729190826416,
        -24.64305305480957,
        -24.435869216918945,
        -30.1237735748291,
        -37.62887954711914,
        -38.65365982055664,
        -39.19414138793945,
        -36.32577133178711,
        -33.73598098754883,
        -33.95781326293945,
        -34.14998245239258,
        -30.75615119934082,
        -25.325220108032227,
        -17.83416175842285,
        -11.069757461547852,
        -12.646280288696289,
        -17.288698196411133,
        -16.68699073791504,
        -11.677103042602539,
        -9.974588394165039,
        -10.391519546508789,
        -14.903093338012695,
        -24.117151260375977,
        -30.27354621887207,
        -35.42435836791992,
        -43.217105865478516,
        -47.98268508911133,
        -43.409000396728516,
        -42.70243453979492,
        -46.271968841552734,
        -46.540714263916016,
        -43.295230865478516,
        -42.3547477722168,
        -42.700008392333984,
        -48.08357620239258,
        -58.48601150512695,
        -55.755374908447266,
        -54.3636589050293,
        -61.67793655395508,
        -76.69891357421875,
        -77.64595031738281,
        -77.44908142089844,
        -74.57701873779297,
        -80.23922729492188,
        -86.52882385253906,
        -90.18276977539062,
        -87.51679992675781,
        -73.5042724609375,
        -63.64155960083008,
        -59.93659591674805,
        -57.56930160522461,
        -55.1779899597168,
        -55.62479782104492,
        -59.22208786010742,
        -54.29679489135742,
        -50.58433151245117,
        -50.934207916259766,
        -43.7827262878418,
        -45.55305099487305,
        -44.8074836730957,
        -43.73433303833008,
        -37.596988677978516,
        -34.77566909790039,
        -28.474870681762695,
        -24.14225196838379,
        -25.937501907348633,
        -25.74076271057129,
        -22.059267044067383,
        -22.57401466369629,
        -28.38145637512207,
        -34.0316276550293,
        -47.72916030883789,
        -61.01132583618164,
        -70.23854064941406,
        -81.03473663330078,
        -91.20793914794922,
        -89.0570068359375,
        -85.71886444091797,
        -79.53539276123047,
        -70.19990539550781,
        -66.85107421875,
        -69.12938690185547,
        -59.7285041809082,
        -59.38435745239258,
        -57.2536735534668,
        -56.7822151184082,
        -59.16311264038086,
        -68.13409423828125,
        -67.4477767944336,
        -59.7586555480957,
        -65.05829620361328,
        -62.287227630615234,
        -65.59015655517578,
        -70.9924087524414,
        -78.80506896972656,
        -72.95085144042969,
        -77.7648696899414,
        -72.28019714355469,
        -60.06288528442383,
        -52.05557632446289,
        -52.09762954711914,
        -51.84977340698242,
        -52.13753128051758,
        -62.96797561645508,
        -63.65420150756836,
        -65.5244140625,
        -69.26730346679688,
        -74.80477905273438,
        -77.189697265625,
        -78.91804504394531,
        -80.59602355957031,
        -76.22821044921875,
        -63.28322982788086,
        -56.40073776245117,
        -55.39706802368164,
        -52.50776290893555,
        -47.96250534057617,
        -49.500545501708984,
        -44.2271842956543,
        -38.913936614990234,
        -44.4632453918457,
        -55.66068649291992,
        -61.11702346801758,
        -71.13409423828125,
        -88.04458618164062,
        -96.97315216064453,
        -107.32579040527344,
        -105.59705352783203,
        -104.86639404296875,
        -104.25802612304688,
        -106.28632354736328,
        -106.9620361328125,
        -104.92741394042969,
        -96.58539581298828,
        -89.3034439086914,
        -94.04862213134766,
        -106.26654815673828,
        -104.61863708496094,
        -118.20110321044922,
        -114.04736328125,
        -97.3482437133789,
        -92.98600006103516,
        -98.12550354003906,
        -99.73709869384766,
        -104.25788116455078,
        -102.0505142211914,
        -84.46661376953125,
        -69.49127960205078,
        -68.96018981933594,
        -62.75480270385742,
        -50.83150100708008,
        -49.49501419067383,
        -43.9905891418457,
        -52.09001541137695,
        -57.35116195678711,
        -66.63977813720703,
        -72.74972534179688,
        -70.80652618408203,
        -65.75395965576172,
        -63.27250289916992,
        -66.40275573730469,
        -59.4446907043457,
        -59.43983840942383,
        -53.46706008911133,
        -48.726261138916016,
        -49.61568069458008,
        -48.399173736572266,
        -45.994625091552734,
        -37.3961067199707,
        -40.9188117980957,
        -48.76156234741211,
        -61.556827545166016,
        -68.47611999511719,
        -73.25410461425781,
        -81.09587860107422,
        -84.1377182006836,
        -86.44451904296875,
        -86.93270111083984,
        -75.71553039550781,
        -72.3318099975586,
        -67.95147705078125,
        -66.72858428955078,
        -67.47335815429688,
        -69.77472686767578,
        -75.98104095458984,
        -83.07225036621094,
        -86.36312866210938,
        -97.23278045654297,
        -105.69188690185547,
        -113.99224853515625,
        -120.24694061279297,
        -122.57097625732422,
        -123.3354263305664,
        -129.33277893066406,
        -130.87962341308594,
        -124.30126953125,
        -116.89111328125,
        -104.11758422851562,
        -92.41910552978516,
        -85.90797424316406,
        -62.34305953979492,
        -53.58561325073242,
        -54.960201263427734,
        -56.96828079223633,
        -49.41873550415039,
        -44.66782760620117,
        -45.95310592651367,
        -46.8742790222168,
        -63.46908187866211,
        -63.71159744262695,
        -64.09736633300781,
        -57.06745529174805,
        -55.41610336303711,
        -42.94612503051758,
        -38.80747604370117,
        -40.78761672973633,
        -35.643245697021484,
        -32.40302658081055,
        -47.75618362426758,
        -38.71896743774414,
        -33.530338287353516,
        -47.87440872192383,
        -65.66082763671875,
        -91.17330169677734,
        -90.6419906616211,
        -89.65033721923828,
        -101.67396545410156,
        -105.7625732421875,
        -108.15360260009766,
        -107.73741149902344,
        -99.20121765136719,
        -98.70633697509766,
        -93.02078247070312,
        -85.56694030761719,
        -81.68411254882812,
        -82.75828552246094,
        -69.32913208007812,
        -64.71537780761719,
        -84.82221984863281,
        -91.83162689208984,
        -103.78124237060547,
        -118.07569122314453,
        -94.20891571044922,
        -91.74195098876953,
        -97.53873443603516,
        -96.91830444335938,
        -100.2314224243164,
        -95.23663330078125,
        -99.0638427734375,
        -92.12749481201172,
        -70.78829193115234,
        -53.539424896240234,
        -39.89279556274414,
        -36.12802505493164,
        -38.5858039855957,
        -43.726688385009766,
        -45.6786003112793,
        -51.147159576416016,
        -59.35970687866211,
        -60.3130989074707,
        -74.2712631225586,
        -74.82759094238281,
        -68.96257019042969,
        -58.217105865478516,
        -52.949466705322266,
        -49.2291374206543,
        -43.97725296020508,
        -49.29953384399414,
        -46.21821975708008,
        -37.05339431762695,
        -33.387516021728516,
        -37.3061637878418,
        -42.99508285522461,
        -56.167171478271484,
        -61.6552619934082,
        -71.06720733642578,
        -74.52029418945312,
        -71.72538757324219,
        -66.3080062866211,
        -59.2615852355957,
        -55.96632766723633,
        -55.852725982666016,
        -58.82321548461914,
        -64.57202911376953,
        -74.29582977294922,
        -87.12478637695312,
        -95.2667465209961,
        -110.44872283935547,
        -109.9117431640625,
        -115.43289947509766,
        -121.85502624511719,
        -133.8302001953125,
        -139.0223388671875,
        -138.73751831054688,
        -143.92947387695312,
        -128.86378479003906,
        -116.76626586914062,
        -103.56652069091797,
        -86.80693054199219,
        -69.7078628540039,
        -69.25174713134766,
        -59.96346664428711,
        -64.06118774414062,
        -66.01297760009766,
        -73.332275390625,
        -71.77708435058594,
        -72.6735610961914,
        -74.54318237304688,
        -68.45217895507812,
        -71.82460021972656,
        -67.1777572631836,
        -73.79864501953125,
        -71.93310546875,
        -77.68486785888672,
        -72.13140869140625,
        -65.6506576538086,
        -57.99814987182617,
        -53.48934555053711,
        -50.74704360961914,
        -44.294071197509766,
        -44.40755844116211,
        -54.05863571166992,
        -59.2554817199707,
        -58.39432144165039,
        -61.93729019165039,
        -65.89666748046875,
        -70.48445892333984,
        -77.4375991821289,
        -76.95816802978516,
        -74.21790313720703,
        -71.42218780517578,
        -81.57526397705078,
        -90.04666137695312,
        -90.29806518554688,
        -94.79923248291016,
        -99.60799407958984,
        -110.12187194824219,
        -110.2378921508789,
        -122.73301696777344,
        -119.90264129638672,
        -120.8515853881836,
        -112.49083709716797,
        -103.8585205078125,
        -100.78595733642578,
        -98.21263122558594,
        -98.34820556640625,
        -93.01207733154297,
        -92.20934295654297,
        -84.80149841308594,
        -78.51110076904297,
        -74.38627624511719,
        -73.04269409179688,
        -67.90618133544922,
        -71.33660888671875,
        -73.05561065673828,
        -75.72112274169922,
        -76.9554672241211,
        -83.91285705566406,
        -84.62335205078125,
        -77.20594787597656,
        -71.75142669677734,
        -59.14085006713867,
        -50.13767623901367,
        -45.21452713012695,
        -42.71883773803711,
        -43.70073318481445,
        -38.08073043823242,
        -34.16374588012695,
        -31.43515968322754,
        -28.836061477661133,
        -36.1348991394043,
        -42.40324783325195,
        -53.134822845458984,
        -59.04862594604492,
        -69.79859161376953,
        -80.334716796875,
        -87.45941925048828,
        -94.6740951538086,
        -91.62220764160156,
        -92.02050018310547,
        -90.29000854492188,
        -92.32300567626953,
        -88.91481018066406,
        -92.37355041503906,
        -89.68925476074219,
        -88.61846160888672,
        -88.71855163574219,
        -87.14278411865234,
        -79.50238037109375,
        -78.18685150146484,
        -78.67073059082031,
        -78.44438171386719,
        -75.28662109375,
        -80.70783233642578,
        -89.07633972167969,
        -94.73633575439453,
        -95.80696105957031,
        -88.41465759277344,
        -84.61585998535156,
        -76.44196319580078,
        -80.51446533203125,
        -77.35003662109375,
        -74.47972869873047,
        -75.88189697265625,
        -86.07290649414062,
        -85.43175506591797,
        -76.9503173828125,
        -69.74803161621094,
        -64.0054702758789,
        -65.96517944335938,
        -70.72579193115234,
        -68.86116790771484,
        -61.81893539428711,
        -56.35026931762695,
        -51.87259292602539,
        -46.85793685913086,
        -45.83926010131836,
        -50.6458625793457,
        -44.166011810302734,
        -40.3536262512207,
        -43.8230094909668,
        -54.89443588256836,
        -66.80961608886719,
        -81.0728759765625,
        -89.3243637084961,
        -91.7818374633789,
