{
  "data_preprocessing": {
    "num_features": 4,
    "feature_names": [
      "A",
      "D",
      "Y",
      "V"
    ],
    "train_samples": 51827,
    "val_samples": 11090,
    "test_samples": 11091,
    "lookback_window": 20
  },
  "optimization": {
    "best_hyperparams": {
      "num_layers": 1,
      "hidden_dim": 187,
      "learning_rate": 0.009222628764301148,
      "dropout": 0.050321647519573194,
      "lookback_window": 28
    },
    "best_objectives": {
      "rmse": 0.10686663664598892,
      "latency_ms": 1.2341484832763672,
      "overfitting_gap": 0.0017355017460616625
    },
    "pareto_front": {
      "objectives": [
        [
          0.14789912854132212,
          0.011559526062011717,
          0.00011987563292971751
        ],
        [
          0.11621745850157868,
          0.010432505798339844,
          0.023492833795525504
        ],
        [
          0.14893354737211395,
          0.008229682922363282,
          0.0007989492039346853
        ],
        [
          0.12071217573262842,
          0.01880432586669922,
          0.0009120953400189556
        ],
        [
          0.10686663664598892,
          0.012341484832763672,
          0.0017355017460616625
        ],
        [
          0.1178212620344507,
          0.009485330963134767,
          0.009235010557017408
        ],
        [
          0.1306543919872822,
          0.008842034912109376,
          0.006190002925665787
        ],
        [
          0.13451791382076891,
          0.012249088287353516,
          0.004094835149639486
        ]
      ],
      "variables": [
        [
          1.9737572138591286,
          170.89576564569083,
          0.006298347511223039,
          0.11923546248843866,
          18.90305219047773
        ],
        [
          2.215896112157744,
          186.28220250700872,
          0.009237240905150554,
          0.38131183890568576,
          29.15191442443892
        ],
        [
          1.9737572138591286,
          171.591565969387,
          0.005988995721523203,
          0.05033160928150424,
          18.90305219047773
        ],
        [
          1.4734916086418801,
          196.5898582712036,
          0.009258703776451828,
          0.049699910877961447,
          27.080097683175673
        ],
        [
          1.892274891943938,
          187.19139699609158,
          0.009222628764301148,
          0.050321647519573194,
          28.2618601507468
        ],
        [
          1.1507669159514262,
          166.01370459120335,
          0.009569539472783151,
          0.1725690505822184,
          27.080097683175673
        ],
        [
          1.1507669159514262,
          166.08164017962946,
          0.005953291182255543,
          0.1725690505822184,
          26.973569630332022
        ],
        [
          1.1950696439339552,
          172.64446423106986,
          0.007499741320758889,
          0.1738196620501936,
          22.894103034549815
        ]
      ]
    },
    "optimization_time": 6351.418974876404,
    "config": {
      "population_size": 8,
      "max_generations": 5,
      "weights": [
        0.6,
        0.05,
        0.35
      ]
    },
    "convergence_history": [
      {
        "gen": 0,
        "best_f": 0.0028711255046923283
      },
      {
        "gen": 1,
        "best_f": 0.0028711255046923283
      },
      {
        "gen": 2,
        "best_f": 0.005260355918047329
      },
      {
        "gen": 3,
        "best_f": 0.010432505798339844
      },
      {
        "gen": 4,
        "best_f": 0.00011987563292971751
      }
    ]
  },
  "training": {
    "model_config": {
      "input_dim": 4,
      "hidden_dim": 187,
      "num_layers": 1,
      "dropout": 0.050321647519573194,
      "feature_attention_dim": 64,
      "temporal_attention_dim": 64,
      "output_dim": 1
    },
    "training_config": {
      "epochs": 100,
      "learning_rate": 0.009222628764301148,
      "weight_decay": 1e-05,
      "batch_size": 64,
      "early_stopping_patience": 15,
      "min_epochs": 20,
      "gradient_clip_norm": 1.0,
      "save_best_model": true,
      "save_checkpoints": true,
      "checkpoint_interval": 10,
      "log_interval": 10,
      "validation_interval": 1
    },
    "hyperparameters": {
      "num_layers": 1,
      "hidden_dim": 187,
      "learning_rate": 0.009222628764301148,
      "dropout": 0.050321647519573194,
      "lookback_window": 28
    },
    "training_time": 751.2431812286377,
    "best_val_loss": 0.011776740727317252,
    "final_train_loss": 0.01144531987733955
  },
  "evaluation": {
    "test_metrics": {
      "rmse": 68.51053822337298,
      "mae": 57.237979888916016,
      "r2": 0.9032422304153442,
      "mape": 51.36092758178711,
      "training_time": 0.0,
      "inference_time": 1.1993619217269722,
      "model_size_mb": 0.8461265563964844,
      "num_parameters": 221807
    },
    "val_metrics": {
      "rmse": 157.98998682669733,
      "mae": 126.27847290039062,
      "r2": 0.9588101506233215,
      "mape": 75.52576446533203,
      "training_time": 0.0,
      "inference_time": 1.2748446957818393,
      "model_size_mb": 0.8461265563964844,
      "num_parameters": 221807
    },
    "test_results": {
      "predictions_original": [
        -1164.2476806640625,
        -1174.003173828125,
        -1177.1551513671875,
        -1179.638427734375,
        -1179.661376953125,
        -1173.5469970703125,
        -1162.8382568359375,
        -1151.5089111328125,
        -1143.2518310546875,
        -1137.356689453125,
        -1131.3272705078125,
        -1124.7464599609375,
        -1118.9473876953125,
        -1114.6478271484375,
        -1113.1805419921875,
        -1114.1370849609375,
        -1115.6485595703125,
        -1115.912841796875,
        -1114.8118896484375,
        -1116.318603515625,
        -1120.3583984375,
        -1122.4970703125,
        -1120.3936767578125,
        -1124.101318359375,
        -1162.03857421875,
        -1249.6185302734375,
        -1360.3753662109375,
        -1445.4461669921875,
        -1500.61083984375,
        -1541.1685791015625,
        -1574.07373046875,
        -1595.0927734375,
        -1603.854736328125,
        -1609.404296875,
        -1616.7373046875,
        -1625.81494140625,
        -1634.5325927734375,
        -1641.60009765625,
        -1645.006591796875,
        -1643.5830078125,
        -1643.4329833984375,
        -1650.00537109375,
        -1661.255126953125,
        -1660.221923828125,
        -1643.8480224609375,
        -1625.0059814453125,
        -1617.2410888671875,
        -1613.39208984375,
        -1605.9849853515625,
        -1588.007568359375,
        -1557.4620361328125,
        -1539.441650390625,
        -1530.115478515625,
        -1507.9622802734375,
        -1456.1092529296875,
        -1361.607177734375,
        -1228.0260009765625,
        -1080.4769287109375,
        -921.6565551757812,
        -731.7747802734375,
        -502.6794128417969,
        -284.5654296875,
        -184.40956115722656,
        -182.3042449951172,
        -124.8576889038086,
        -28.275903701782227,
        77.08690643310547,
        185.18038940429688,
        230.52420043945312,
        300.0987243652344,
        314.978759765625,
        293.1982727050781,
        269.531982421875,
        293.39306640625,
        376.5074768066406,
        567.348388671875,
        740.6162719726562,
        783.0882568359375,
        790.9600830078125,
        754.0411987304688,
        673.803955078125,
        675.6768798828125,
        761.738037109375,
        863.8240966796875,
        931.813232421875,
        1015.6710205078125,
        1088.708984375,
        1112.3125,
        1098.4388427734375,
        1083.063720703125,
        1092.8021240234375,
        1140.409423828125,
        1169.2352294921875,
        1173.07568359375,
        1161.5306396484375,
        1146.662841796875,
        1133.52783203125,
        1124.3240966796875,
        1093.0791015625,
        1074.9683837890625,
        1065.1575927734375,
        1066.418212890625,
        1074.3424072265625,
        1075.22900390625,
        1070.215576171875,
        1059.769287109375,
        1044.511962890625,
        1029.839111328125,
        1018.610595703125,
        996.971435546875,
        963.271484375,
        919.6934814453125,
        880.1925048828125,
        851.5164794921875,
        843.0226440429688,
        858.93310546875,
        892.2032470703125,
        924.480224609375,
        938.2998046875,
        931.150390625,
        909.3148193359375,
        881.7380981445312,
        854.8670043945312,
        831.8189086914062,
        810.269287109375,
        784.0638427734375,
        735.186279296875,
        634.0722045898438,
        506.956787109375,
        555.2486572265625,
        565.9097290039062,
        564.580322265625,
        570.7296752929688,
        587.7086181640625,
        588.367919921875,
        559.78662109375,
        521.5721435546875,
        485.898681640625,
        464.28253173828125,
        472.51861572265625,
        493.00872802734375,
        500.2984619140625,
        492.101806640625,
        475.0867919921875,
        438.8428955078125,
        333.5963439941406,
        143.43728637695312,
        -101.59619903564453,
        -353.4779968261719,
        -499.6418762207031,
        -629.9510498046875,
        -692.7642822265625,
        -672.449462890625,
        -635.1688232421875,
        -665.701171875,
        -748.6188354492188,
        -842.841552734375,
        -910.7256469726562,
        -946.5684204101562,
        -957.2933959960938,
        -937.3272705078125,
        -911.2258911132812,
        -884.3683471679688,
        -892.4332275390625,
        -943.8427124023438,
        -973.9052124023438,
        -957.2146606445312,
        -953.4537353515625,
        -851.861083984375,
        -831.4340209960938,
        -868.7689208984375,
        -921.0167236328125,
        -1005.4102783203125,
        -1073.8028564453125,
        -1121.271484375,
        -1141.3431396484375,
        -1173.0198974609375,
        -1209.3380126953125,
        -1234.78076171875,
        -1297.2611083984375,
        -1346.9027099609375,
        -1411.812255859375,
        -1451.5201416015625,
        -1466.9715576171875,
        -1460.8526611328125,
        -1456.352783203125,
        -1452.8394775390625,
        -1462.234375,
        -1458.6907958984375,
        -1445.12255859375,
        -1429.5504150390625,
        -1415.22998046875,
        -1401.6173095703125,
        -1394.0830078125,
        -1396.7998046875,
        -1396.8065185546875,
        -1389.1473388671875,
        -1383.4207763671875,
        -1377.9735107421875,
        -1354.6810302734375,
        -1304.03662109375,
        -1250.2333984375,
        -1213.0465087890625,
        -1184.702880859375,
        -1132.19775390625,
        -1016.72119140625,
        -816.5313720703125,
        -533.3792114257812,
        -292.0993347167969,
        -98.94486236572266,
        178.54220581054688,
        383.958984375,
        555.6342163085938,
        704.9494018554688,
        744.7054443359375,
        722.1310424804688,
        697.0347290039062,
        698.5149536132812,
        719.9592895507812,
        810.9306640625,
        875.7665405273438,
        886.4630737304688,
        903.6103515625,
        922.4285888671875,
        937.818603515625,
        908.906494140625,
        883.432373046875,
        917.3961181640625,
        940.555908203125,
        917.2806396484375,
        937.7552490234375,
        950.523681640625,
        986.3616943359375,
        1052.4439697265625,
        1081.8514404296875,
        1086.063720703125,
        1031.8365478515625,
        945.58203125,
        859.1034545898438,
        785.1046752929688,
        709.7600708007812,
        642.6838989257812,
        596.3125610351562,
        566.9763793945312,
        532.5011596679688,
        450.74798583984375,
        380.5911560058594,
        372.072509765625,
        322.88201904296875,
        272.109619140625,
        188.18414306640625,
        78.13143157958984,
        -74.21553802490234,
        -253.13424682617188,
        -411.0405578613281,
        -528.5853271484375,
        -587.0584716796875,
        -631.940185546875,
        -664.8951416015625,
        -704.7330932617188,
        -776.3983764648438,
        -866.3944702148438,
        -954.5379638671875,
        -1034.170654296875,
        -1091.78271484375,
        -1147.7626953125,
        -1083.9591064453125,
        -959.0830688476562,
        -915.7340698242188,
        -897.34521484375,
        -892.4217529296875,
        -832.9571533203125,
        -704.2006225585938,
        -480.7105712890625,
        -242.1428680419922,
        -79.4875717163086,
        116.4947280883789,
        298.9376525878906,
        457.64056396484375,
        562.3412475585938,
        613.6716918945312,
        667.2161254882812,
        716.9686279296875,
        763.7185668945312,
        817.4700317382812,
        863.16015625,
        959.829833984375,
        1060.44482421875,
        1118.3896484375,
        1093.717041015625,
        1042.08349609375,
        986.9180908203125,
        947.1141357421875,
        916.865234375,
        902.4659423828125,
        903.8055419921875,
        885.8629150390625,
        848.1697998046875,
        780.8977661132812,
        690.5631103515625,
        604.3350219726562,
        522.8856811523438,
        457.81817626953125,
        411.843017578125,
        371.1361389160156,
        351.3507385253906,
        334.3388977050781,
        272.0621337890625,
        152.85079956054688,
        129.08981323242188,
        57.755069732666016,
        63.56251907348633,
        87.99382781982422,
        122.73596954345703,
        132.660400390625,
        122.73392486572266,
        106.1629867553711,
        97.1664810180664,
        103.8620376586914,
        117.5252456665039,
        126.53104400634766,
        123.42212677001953,
        105.0296401977539,
        80.79727935791016,
        77.38713836669922,
        127.64017486572266,
        209.53805541992188,
        286.9178771972656,
        331.73199462890625,
        343.06365966796875,
        347.2522277832031,
        366.3135070800781,
        385.835205078125,
        420.7706298828125,
        451.776123046875,
        471.6748046875,
        474.20208740234375,
        466.39727783203125,
        456.043212890625,
        452.7841796875,
        449.57110595703125,
        415.1292724609375,
        363.4635314941406,
        328.117919921875,
        319.05950927734375,
        335.7870788574219,
        337.08734130859375,
        333.3931579589844,
        331.6362609863281,
        362.0741882324219,
        396.41424560546875,
        410.54315185546875,
        409.5042724609375,
        396.1173095703125,
        382.8086853027344,
        373.563720703125,
        348.3923034667969,
        303.85760498046875,
        259.5988464355469,
        228.29946899414062,
        210.51409912109375,
        196.035888671875,
        183.17398071289062,
        167.5089111328125,
        147.9854736328125,
        137.60513305664062,
        133.33969116210938,
        134.88552856445312,
        141.24978637695312,
        142.73538208007812,
        137.83438110351562,
        136.19979858398438,
        136.18051147460938,
        137.23593139648438,
        137.06271362304688,
        140.9261474609375,
        154.499267578125,
        165.73245239257812,
        164.31695556640625,
        151.51837158203125,
        144.46182250976562,
        151.55657958984375,
        156.00051879882812,
        142.83609008789062,
        118.06429290771484,
        97.76297760009766,
        12.208822250366211,
        -178.52517700195312,
        -448.89984130859375,
        -712.218994140625,
        -967.1541137695312,
        -1191.8134765625,
        -1367.6053466796875,
        -1475.37255859375,
        -1495.9564208984375,
        -1432.143798828125,
        -1410.07666015625,
        -1378.5513916015625,
        -1437.305419921875,
        -1480.6229248046875,
        -1515.650390625,
        -1536.120361328125,
        -1544.6884765625,
        -1548.907470703125,
        -1551.5076904296875,
        -1546.4884033203125,
        -1537.9537353515625,
        -1533.6895751953125,
        -1536.215087890625,
        -1548.6226806640625,
        -1553.701904296875,
        -1544.410400390625,
        -1524.433349609375,
        -1514.163818359375,
        -1514.0859375,
        -1496.4261474609375,
        -1467.2139892578125,
        -1376.6710205078125,
        -1271.3101806640625,
        -1177.57080078125,
        -1088.65087890625,
        -1012.7606811523438,
        -964.2880859375,
        -934.5541381835938,
        -910.8045654296875,
        -884.9793090820312,
        -857.6738891601562,
        -825.2847900390625,
        -791.4619140625,
        -760.5045776367188,
        -728.0264282226562,
        -695.2890014648438,
        -664.6065063476562,
        -620.0958862304688,
        -572.4765014648438,
        -535.7486572265625,
        -496.4952087402344,
        -424.5662536621094,
        -304.2815246582031,
        -170.38063049316406,
        -35.99607467651367,
        132.56549072265625,
        280.1640625,
        373.0313415527344,
        422.0838623046875,
        458.64599609375,
        503.41937255859375,
        578.093994140625,
        668.750244140625,
        767.5875854492188,
        869.5882568359375,
        966.882568359375,
        1032.93310546875,
        1059.0111083984375,
        1046.5504150390625,
        1002.051513671875,
        960.28955078125,
        933.72705078125,
        955.4951171875,
        1008.6683349609375,
        1078.1265869140625,
        1145.4207763671875,
        1192.824462890625,
        1221.6859130859375,
        1211.816650390625,
        1174.4598388671875,
        1125.406005859375,
        1084.021240234375,
        1057.0804443359375,
        1043.09814453125,
        1023.3680419921875,
        988.6944580078125,
        951.5130615234375,
        930.4117431640625,
        941.6715087890625,
        984.4010009765625,
        1011.3133544921875,
        1016.7266845703125,
        1004.4713134765625,
        976.038330078125,
        943.94384765625,
        918.9842529296875,
        896.161865234375,
        882.6592407226562,
        873.9771118164062,
        861.2982177734375,
        823.7369384765625,
        731.9759521484375,
        618.3648071289062,
        647.5615844726562,
        653.3389892578125,
        645.9545288085938,
        650.977783203125,
        689.5999755859375,
        692.8892211914062,
        668.2965698242188,
        640.597900390625,
        609.6206665039062,
        575.4522094726562,
        529.3364868164062,
        542.8788452148438,
        608.7083740234375,
        697.7102661132812,
        765.354736328125,
        817.7025756835938,
        865.7415161132812,
        902.277099609375,
        925.3624267578125,
        939.3807373046875,
        960.5618896484375,
        994.2713623046875,
        1023.116455078125,
        1033.0313720703125,
        1037.8543701171875,
        1047.0509033203125,
        1043.299072265625,
        1018.86572265625,
        1011.558349609375,
        973.1905517578125,
        945.7945556640625,
        929.9012451171875,
        919.391357421875,
        912.492919921875,
        907.2720947265625,
        906.2239990234375,
        910.422607421875,
        914.297119140625,
        911.787109375,
        902.498291015625,
        887.1768188476562,
        867.4762573242188,
        845.5631713867188,
        825.08837890625,
        811.5911865234375,
        812.2503051757812,
        829.63037109375,
        859.864990234375,
        897.4140625,
        937.1326904296875,
        976.4765625,
        1013.092529296875,
        1042.4613037109375,
        1058.89697265625,
        1060.921630859375,
        1052.5738525390625,
        1036.8966064453125,
        1019.931884765625,
        1005.8240966796875,
        994.81591796875,
        984.9852294921875,
        975.952880859375,
        967.485107421875,
        959.929443359375,
        954.765869140625,
        952.2291259765625,
        952.9537353515625,
        954.94970703125,
        954.7733154296875,
        951.44189453125,
        945.534912109375,
        939.294921875,
        934.91748046875,
        932.50634765625,
        931.422607421875,
        938.23046875,
        958.609619140625,
        988.64599609375,
        1020.4637451171875,
        1048.5604248046875,
        1070.477294921875,
        1084.44775390625,
        1087.762939453125,
        1080.3253173828125,
        1067.9520263671875,
        1056.9600830078125,
        1051.064208984375,
        1050.3953857421875,
        1051.4478759765625,
        1050.0521240234375,
        1045.6483154296875,
        1039.6307373046875,
        1033.19921875,
        1027.6181640625,
        1025.826171875,
        1028.34326171875,
        1034.4478759765625,
        1041.7867431640625,
        1046.8026123046875,
        1047.0902099609375,
        1043.328857421875,
        1037.9036865234375,
        1032.738525390625,
        1027.555419921875,
        1023.81298828125,
        1027.6375732421875,
        1043.54736328125,
        1065.8865966796875,
        1085.3634033203125,
        1097.3026123046875,
        1103.2969970703125,
        1104.3375244140625,
        1099.86279296875,
        1090.721923828125,
        1080.3050537109375,
        1072.8924560546875,
        1070.0172119140625,
        1071.9400634765625,
        1075.902587890625,
        1078.0037841796875,
        1076.20654296875,
        1071.1304931640625,
        1065.36669921875,
        1060.040771484375,
        1055.102294921875,
        1051.58984375,
        1050.3062744140625,
        1050.142578125,
        1043.5616455078125,
        1029.2381591796875,
        1004.2310791015625,
        976.7784423828125,
        934.3636474609375,
        844.5071411132812,
        679.7105102539062,
        462.02813720703125,
        267.8862609863281,
        100.31023406982422,
        33.07258987426758,
        -152.35887145996094,
        -295.9251708984375,
        -476.578125,
        -611.476318359375,
        -673.415283203125,
        -714.5601806640625,
        -727.7945556640625,
        -675.9837646484375,
        -588.154541015625,
        -671.9854736328125,
        -744.0731201171875,
        -790.2572631835938,
        -811.41650390625,
        -845.7989501953125,
        -850.8574829101562,
        -813.9612426757812,
        -784.5447387695312,
        -767.38671875,
        -818.1171875,
        -831.4158935546875,
        -813.33447265625,
        -754.2593994140625,
        -765.646728515625,
        -720.4038696289062,
        -658.487060546875,
        -721.8907470703125,
        -788.9993896484375,
        -804.0010375976562,
        -782.9105224609375,
        -734.1929321289062,
        -682.7823486328125,
        -685.2857666015625,
        -698.9797973632812,
        -694.7711791992188,
        -645.1270141601562,
        -592.9933471679688,
        -605.8644409179688,
        -654.907470703125,
        -710.726806640625,
        -728.3807983398438,
        -697.8331909179688,
        -646.8858642578125,
        -625.4898681640625,
        -620.6275024414062,
        -612.8204345703125,
        -608.9125366210938,
        -606.8786010742188,
        -605.2022705078125,
        -612.8029174804688,
        -637.65625,
        -644.912109375,
        -621.669677734375,
        -602.4530029296875,
        -629.1433715820312,
        -660.4805297851562,
        -649.5108642578125,
        -605.9627685546875,
        -571.0234985351562,
        -574.1510620117188,
        -587.626220703125,
        -591.7546997070312,
        -574.4171752929688,
        -553.4263916015625,
        -543.8596801757812,
        -542.2238159179688,
        -540.8384399414062,
        -532.413818359375,
        -522.1989135742188,
        -523.7015380859375,
        -534.4788818359375,
        -546.4533081054688,
        -538.2245483398438,
        -505.6553955078125,
        -486.7657775878906,
        -483.4996032714844,
        -484.3210754394531,
        -480.29302978515625,
        -468.5314025878906,
        -460.9789123535156,
        -461.1531677246094,
        -462.49810791015625,
        -458.547607421875,
        -447.81536865234375,
        -440.8061218261719,
        -440.4685974121094,
        -440.6671447753906,
        -440.6730041503906,
        -440.00738525390625,
        -440.3701477050781,
        -440.4890441894531,
        -438.13690185546875,
        -431.8276062011719,
        -423.4336242675781,
        -419.9847717285156,
        -420.6003723144531,
        -418.2065124511719,
        -412.3487854003906,
        -408.8499450683594,
        -405.96624755859375,
        -403.0873718261719,
        -400.5297546386719,
        -398.4808349609375,
        -396.9733581542969,
        -393.66058349609375,
        -389.2056884765625,
        -384.0002136230469,
        -378.8194580078125,
        -374.8626403808594,
        -373.6838073730469,
        -375.53082275390625,
        -379.59368896484375,
        -382.2259216308594,
        -380.8299560546875,
        -376.8306579589844,
        -373.45904541015625,
        -372.51470947265625,
        -368.7910461425781,
        -363.2988586425781,
        -360.2109069824219,
        -361.669677734375,
        -366.2001647949219,
        -370.27801513671875,
        -369.60894775390625,
        -363.0113220214844,
        -355.18194580078125,
        -350.6054992675781,
        -348.7106628417969,
        -344.4161376953125,
        -340.77020263671875,
        -341.5418395996094,
        -346.7401123046875,
        -351.97174072265625,
        -352.2644348144531,
        -347.3916015625,
        -340.9850158691406,
        -337.5394287109375,
        -339.24932861328125,
        -341.945068359375,
        -342.083984375,
        -344.1715393066406,
        -349.84051513671875,
        -355.0089416503906,
        -358.50177001953125,
        -355.5439147949219,
        -347.22381591796875,
        -338.3247375488281,
        -331.55767822265625,
        -326.0636291503906,
        -319.1922912597656,
        -311.2782897949219,
        -305.4200134277344,
        -301.5205078125,
        -301.4292907714844,
        -299.29791259765625,
        -294.5305480957031,
        -289.40838623046875,
        -289.6654357910156,
        -293.5323486328125,
        -297.5782775878906,
        -300.04266357421875,
        -299.7408447265625,
        -297.614990234375,
        -296.0575866699219,
        -295.9312744140625,
        -292.7789001464844,
        -286.0666198730469,
        -279.32745361328125,
        -280.3458251953125,
        -285.2206115722656,
        -288.4632263183594,
        -289.5933532714844,
        -289.51214599609375,
        -289.3922424316406,
        -288.55181884765625,
        -286.7701721191406,
        -282.5048828125,
        -276.93896484375,
        -270.21881103515625,
        -266.5035400390625,
        -265.1356201171875,
        -262.2818908691406,
        -257.3501281738281,
        -254.1776580810547,
        -253.14523315429688,
        -254.168701171875,
        -256.0168151855469,
        -256.65618896484375,
        -258.3669128417969,
        -260.7966003417969,
        -266.9493103027344,
        -272.9286804199219,
        -274.20550537109375,
        -272.11370849609375,
        -267.18896484375,
        -258.6073913574219,
        -247.98410034179688,
        -235.66102600097656,
        -222.84548950195312,
        -212.5507049560547,
        -205.6077880859375,
        -198.9080810546875,
        -196.6646728515625,
        -196.45327758789062,
        -199.93894958496094,
        -204.00814819335938,
        -208.90628051757812,
        -212.5140838623047,
        -214.59693908691406,
        -221.73890686035156,
        -226.63162231445312,
        -228.39122009277344,
        -223.7477569580078,
        -214.5176544189453,
        -205.7207794189453,
        -198.64418029785156,
        -191.6260223388672,
        -187.56796264648438,
        -185.06214904785156,
        -185.6588134765625,
        -189.57070922851562,
        -196.8606719970703,
        -203.0416259765625,
        -209.98568725585938,
        -218.7769012451172,
        -226.8570098876953,
        -235.07455444335938,
        -240.69300842285156,
        -240.68687438964844,
        -233.85049438476562,
        -224.89930725097656,
        -217.12791442871094,
        -214.74737548828125,
        -210.28262329101562,
        -206.95184326171875,
        -204.20416259765625,
        -206.69918823242188,
        -209.30755615234375,
        -211.80361938476562,
        -212.5592041015625,
        -211.67025756835938,
        -211.7693328857422,
        -208.12945556640625,
        -201.94412231445312,
        -190.59808349609375,
        -178.62960815429688,
        -169.93287658691406,
        -163.96078491210938,
        -153.84097290039062,
        -150.93597412109375,
        -148.77272033691406,
        -142.19302368164062,
        -142.0373992919922,
        -148.4418487548828,
        -149.8630828857422,
        -148.4275360107422,
        -143.95765686035156,
        -139.725341796875,
        -134.10098266601562,
        -136.10374450683594,
        -131.05245971679688,
        -112.81874084472656,
        -100.06767272949219,
        -90.46332550048828,
        -93.90802764892578,
        -93.3221435546875,
        -92.99427032470703,
        -94.31640625,
        -93.18344116210938,
        -89.81022644042969,
        -90.83179473876953,
        -96.51074981689453,
        -92.96331024169922,
        -84.37894439697266,
        -94.17044830322266,
        -88.56011962890625,
        -95.67460632324219,
        -97.53591918945312,
        -90.30289459228516,
        -81.94195556640625,
        -77.5835189819336,
        -80.30646514892578,
        -74.09679412841797,
        -74.92533874511719,
        -67.81480407714844,
        -73.16522216796875,
        -84.66912078857422,
        -87.0894775390625,
        -78.97872161865234,
        -70.84858703613281,
        -60.74990463256836,
        -54.41019821166992,
        -52.381595611572266,
        -48.28665542602539,
        -43.83378219604492,
        -37.59994888305664,
        -35.39512252807617,
        -35.9975471496582,
        -36.9425163269043,
        -36.30985641479492,
        -33.37362289428711,
        -28.204660415649414,
        -23.375642776489258,
        -27.860124588012695,
        -35.346920013427734,
        -38.5412483215332,
        -39.281375885009766,
        -41.27006912231445,
        -43.786006927490234,
        -48.28341293334961,
        -52.591251373291016,
        -50.40150833129883,
        -43.0385627746582,
        -35.01139450073242,
        -32.67185592651367,
        -31.808656692504883,
        -36.5063362121582,
        -40.86879348754883,
        -43.4398078918457,
        -41.72230911254883,
        -48.51951217651367,
        -60.32477951049805,
        -61.971866607666016,
        -64.81881713867188,
        -61.90043258666992,
        -61.77449417114258,
        -65.37539672851562,
        -72.7392807006836,
        -69.0068588256836,
        -65.02965545654297,
        -62.984737396240234,
        -63.35726547241211,
        -60.45207595825195,
        -58.15445327758789,
        -49.369869232177734,
        -45.21244430541992,
        -47.73251724243164,
        -52.453800201416016,
        -59.2220344543457,
        -62.86746597290039,
        -64.39501953125,
        -63.55009841918945,
        -65.3929443359375,
        -72.62357330322266,
        -71.46417999267578,
        -60.91128158569336,
        -51.34260177612305,
        -42.134525299072266,
        -36.4680290222168,
        -31.495378494262695,
        -29.0060977935791,
        -19.896692276000977,
        -18.019319534301758,
        -24.455575942993164,
        -33.80646896362305,
        -39.928585052490234,
        -47.10219955444336,
        -46.50200271606445,
        -43.97981643676758,
        -46.564029693603516,
        -50.08663558959961,
        -47.88564682006836,
        -41.84049606323242,
        -39.53053665161133,
        -40.657474517822266,
        -50.290950775146484,
        -66.80065155029297,
        -73.89643859863281,
        -73.15293884277344,
        -72.64573669433594,
        -76.40597534179688,
        -74.62023162841797,
        -64.82267761230469,
        -54.79056167602539,
        -47.19748306274414,
        -50.872684478759766,
        -57.43649673461914,
        -65.61697387695312,
        -63.15462112426758,
        -58.213008880615234,
        -56.02461624145508,
        -55.93195724487305,
        -59.886775970458984,
        -63.30685806274414,
        -57.596309661865234,
        -53.70932388305664,
        -54.01778793334961,
        -61.731563568115234,
        -68.2250747680664,
        -73.75911712646484,
        -75.05970001220703,
        -71.79966735839844,
        -78.08280944824219,
        -81.13833618164062,
        -84.97007751464844,
        -75.51338195800781,
        -65.02500915527344,
        -55.092105865478516,
        -42.2268180847168,
        -34.69644546508789,
        -26.27341651916504,
        -16.898881912231445,
        -11.901277542114258,
        -14.787446975708008,
        -21.864938735961914,
        -28.857019424438477,
        -38.44649887084961,
        -40.93320083618164,
        -41.54549789428711,
        -46.789249420166016,
        -48.23759841918945,
        -45.857112884521484,
        -45.6871452331543,
        -44.862361907958984,
        -42.38881301879883,
        -42.403865814208984,
        -50.133968353271484,
        -52.40322494506836,
        -54.5612678527832,
        -51.9694938659668,
        -47.90224838256836,
        -44.352237701416016,
        -45.2346076965332,
        -48.192142486572266,
        -47.8866081237793,
        -55.031070709228516,
        -59.4993782043457,
        -65.04680633544922,
        -64.34944152832031,
        -64.8010482788086,
        -58.85470199584961,
        -53.566165924072266,
        -50.356937408447266,
        -47.180606842041016,
        -48.4621467590332,
        -50.8514518737793,
        -52.298885345458984,
        -55.10245895385742,
        -60.01712417602539,
        -62.028682708740234,
        -63.80899429321289,
        -62.39409255981445,
        -59.53044509887695,
        -58.45444107055664,
        -58.842159271240234,
        -55.15836715698242,
        -51.463924407958984,
        -46.11025619506836,
        -40.90719985961914,
        -37.64078140258789,
        -34.34699630737305,
        -31.644243240356445,
        -29.113855361938477,
        -33.30585861206055,
        -41.028079986572266,
        -51.67939376831055,
        -52.14346694946289,
        -50.68961715698242,
        -47.63825607299805,
        -48.3294563293457,
        -51.2841682434082,
        -48.26468276977539,
        -43.287776947021484,
        -34.721317291259766,
        -33.62295913696289,
        -36.1954231262207,
        -40.11488723754883,
        -41.98781967163086,
        -39.000797271728516,
        -42.956729888916016,
        -44.173954010009766,
        -49.19344711303711,
        -57.04837417602539,
        -59.618831634521484,
        -63.7672233581543,
        -66.89713287353516,
        -75.88094329833984,
        -76.65223693847656,
        -73.82617950439453,
        -67.14446258544922,
        -60.39336013793945,
        -55.96512222290039,
        -56.25554275512695,
        -54.506595611572266,
        -50.95834732055664,
        -52.06486129760742,
        -62.51565933227539,
        -70.21038818359375,
        -63.826290130615234,
        -63.9940299987793,
        -57.02241897583008,
        -59.167179107666016,
        -63.03264236450195,
        -67.71774291992188,
        -63.86197280883789,
        -63.23141860961914,
        -59.98298263549805,
        -52.0025520324707,
        -48.275272369384766,
        -40.98012161254883,
        -29.532991409301758,
        -14.165140151977539,
        -12.624238967895508,
        -13.05449104309082,
        -21.85007667541504,
        -29.486764907836914,
        -31.12156867980957,
        -32.89651870727539,
        -34.29165267944336,
        -41.10408401489258,
        -47.02964401245117,
        -45.06203079223633,
        -41.49897384643555,
        -32.880733489990234,
        -28.996187210083008,
        -32.313411712646484,
        -37.645809173583984,
        -45.26615524291992,
        -39.65694808959961,
        -45.56870651245117,
        -48.18851852416992,
        -60.01119613647461,
        -62.8918342590332,
        -57.7132682800293,
        -60.0944938659668,
        -60.122196197509766,
        -70.92156982421875,
        -75.1917724609375,
        -75.86833953857422,
        -70.99932098388672,
        -63.6322135925293,
        -54.295406341552734,
        -48.6685905456543,
        -45.474918365478516,
        -44.3938102722168,
        -48.54182815551758,
        -61.0717658996582,
        -73.8025131225586,
        -89.6541976928711,
        -95.84593963623047,
        -89.59839630126953,
        -81.16961669921875,
        -71.4722900390625,
        -64.39141845703125,
        -57.06026840209961,
        -53.4017448425293,
        -54.21146011352539,
        -56.191104888916016,
        -56.39393997192383,
        -49.807125091552734,
        -43.50282669067383,
        -32.06559371948242,
        -30.831499099731445,
        -26.077516555786133,
        -21.91843605041504,
        -20.65061378479004,
        -22.770998001098633,
        -26.638818740844727,
        -29.95794105529785,
        -39.94889450073242,
        -42.05904006958008,
        -47.65375900268555,
        -48.96638870239258,
        -47.02968978881836,
        -44.39762496948242,
        -45.087100982666016,
        -47.77827072143555,
        -45.545406341552734,
        -38.55531692504883,
        -33.865726470947266,
        -29.695398330688477,
        -32.66025161743164,
        -41.25032424926758,
        -47.65983200073242,
        -51.00410079956055,
        -57.06919479370117,
        -70.92920684814453,
        -82.76646423339844,
        -88.57141876220703,
        -86.20509338378906,
        -75.47563171386719,
        -66.76766967773438,
        -62.551761627197266,
        -56.641544342041016,
        -50.6577033996582,
        -43.9107780456543,
        -45.4109001159668,
        -62.0553092956543,
        -81.41153717041016,
        -91.86495208740234,
        -82.58541107177734,
        -82.86371612548828,
        -77.87958526611328,
        -73.60494995117188,
        -72.91999816894531,
        -63.825557708740234,
        -53.347232818603516,
        -40.18864822387695,
        -35.138675689697266,
        -25.558740615844727,
        -20.28618049621582,
        -16.080827713012695,
        -11.892541885375977,
        -14.36845588684082,
        -23.41411781311035,
        -39.13190841674805,
        -49.79835891723633,
        -51.742923736572266,
        -48.48476028442383,
        -49.41214370727539,
        -48.9593391418457,
        -49.89133071899414,
        -46.017147064208984,
        -39.56186294555664,
        -32.0018424987793,
        -36.38149642944336,
        -44.47861862182617,
        -47.67824172973633,
        -49.169490814208984,
        -46.63261032104492,
        -39.433414459228516,
        -42.48323440551758,
        -46.347843170166016,
        -43.11386489868164,
        -41.61537551879883,
        -51.28286361694336,
        -65.16851806640625,
        -78.7662582397461,
        -90.11858367919922,
        -84.8535385131836,
        -75.65901947021484,
        -68.66120910644531,
        -67.11556243896484,
        -61.95792007446289,
        -57.97489547729492,
        -50.77873611450195,
        -56.95161819458008,
        -72.177490234375,
        -96.46903228759766,
        -111.7740249633789,
        -111.08280181884766,
        -107.31647491455078,
        -99.61048889160156,
        -101.97396087646484,
        -94.95418548583984,
        -79.7732925415039,
        -65.74019622802734,
        -50.554805755615234,
        -43.80051803588867,
        -35.28940200805664,
        -27.436594009399414,
        -15.183320999145508,
        -6.298196792602539,
        -8.354700088500977,
        -15.613130569458008,
        -24.27501106262207,
        -24.585886001586914,
        -23.35807991027832,
        -27.027650833129883,
        -30.19511604309082,
        -34.41659927368164,
        -36.63740921020508,
        -32.55624008178711,
        -22.303407669067383,
        -16.83074378967285,
        -18.001100540161133,
        -18.96685218811035,
        -22.620996475219727,
        -27.57847023010254,
        -33.15812301635742,
        -42.17360305786133,
        -61.37852096557617,
        -69.9309310913086,
        -71.03291320800781,
        -68.41656494140625,
        -69.29427337646484,
        -72.46173095703125,
        -74.45934295654297,
        -77.23749542236328,
        -70.0719223022461,
        -66.46036529541016,
        -65.1710205078125,
        -67.0441665649414,
        -72.22930145263672,
        -76.33924865722656,
        -70.41207885742188,
        -66.0071029663086,
        -72.19670867919922,
        -73.20182800292969,
        -71.6323013305664,
        -68.11583709716797,
        -60.735599517822266,
        -55.458316802978516,
        -59.188785552978516,
        -57.66655349731445,
        -55.53300857543945,
        -55.57761001586914,
        -54.28152847290039,
        -53.54085922241211,
        -50.95078659057617,
        -44.81887435913086,
        -37.91904067993164,
        -34.559322357177734,
        -34.44033432006836,
        -37.45206069946289,
        -39.21183395385742,
        -42.39151382446289,
        -45.1295280456543,
        -46.644962310791016,
        -48.72476577758789,
        -49.58879470825195,
        -46.50949478149414,
        -44.14693832397461,
        -44.00777816772461,
        -43.68289566040039,
        -40.88626480102539,
        -41.602054595947266,
        -38.71072769165039,
        -38.32455062866211,
        -44.58902359008789,
        -45.91685104370117,
        -48.89897537231445,
        -47.633792877197266,
        -48.30514144897461,
        -50.14887619018555,
        -55.79157638549805,
        -62.881038665771484,
        -61.36568832397461,
        -59.20553207397461,
        -57.3553581237793,
        -58.81167221069336,
        -68.14540100097656,
        -70.08480072021484,
        -71.41698455810547,
        -71.29130554199219,
        -72.03150177001953,
        -78.02667236328125,
        -78.92208099365234,
        -80.80610656738281,
        -79.2345962524414,
        -81.76248168945312,
        -85.98855590820312,
        -88.11994934082031,
        -90.82752990722656,
        -90.35609436035156,
        -86.92063903808594,
        -81.00057220458984,
        -72.10123443603516,
        -65.74954986572266,
        -56.25290298461914,
        -41.51768112182617,
        -30.303789138793945,
        -18.589548110961914,
        -10.484598159790039,
        -5.37034797668457,
        -10.04362678527832,
        -18.085725784301758,
        -21.87949562072754,
        -26.803255081176758,
        -30.75199317932129,
        -36.12978744506836,
        -41.76130294799805,
        -46.882747650146484,
        -41.5231819152832,
        -34.31645584106445,
        -31.319589614868164,
        -31.980440139770508,
        -30.433732986450195,
        -34.043521881103516,
        -35.13288497924805,
        -39.32869338989258,
        -44.98439407348633,
        -53.90193557739258,
        -54.00337600708008,
        -54.63679122924805,
        -62.401302337646484,
        -61.43171310424805,
        -68.0783920288086,
        -68.84125518798828,
        -66.98371124267578,
        -59.42155075073242,
        -60.40604782104492,
        -56.33011245727539,
        -50.53639602661133,
        -50.76432418823242,
        -53.09404373168945,
        -54.02485275268555,
        -60.1790885925293,
        -68.42779541015625,
        -69.8778076171875,
        -69.61508178710938,
        -75.93299102783203,
        -74.67984771728516,
        -68.26883697509766,
        -66.81700897216797,
        -67.50269317626953,
        -60.118839263916016,
        -51.258785247802734,
        -46.59174728393555,
        -36.17190170288086,
        -25.625085830688477,
        -18.850221633911133,
        -14.005975723266602,
        -7.544694900512695,
        -11.010217666625977,
        -20.158761978149414,
        -28.287797927856445,
        -33.90165328979492,
        -40.82209396362305,
        -45.21184158325195,
        -48.148929595947266,
        -52.195247650146484,
        -50.4858283996582,
        -43.62057876586914,
        -36.61525344848633,
        -33.852481842041016,
        -35.5431022644043,
        -37.65390396118164,
        -44.54703903198242,
        -49.32204055786133,
        -58.109249114990234,
        -65.53314208984375,
        -73.98493194580078,
        -70.72303771972656,
        -61.8330192565918,
        -59.72127914428711,
        -56.1154670715332,
        -61.59621810913086,
        -65.92334747314453,
        -66.55841064453125,
        -59.33413314819336,
        -63.69668197631836,
        -62.44330978393555,
        -63.6550407409668,
        -58.277584075927734,
        -49.18313217163086,
        -40.21681594848633,
        -40.51175308227539,
        -51.59025192260742,
        -53.80305099487305,
        -58.38662338256836,
        -57.680416107177734,
        -63.87520217895508,
        -68.2938232421875,
        -74.03338623046875,
        -76.34181213378906,
        -69.57001495361328,
        -61.92234420776367,
        -58.420047760009766,
        -48.238643646240234,
        -38.5159797668457,
        -29.38926887512207,
        -21.80863380432129,
        -16.787080764770508,
        -23.300485610961914,
        -36.52713394165039,
        -40.24740219116211,
        -48.71065902709961,
        -52.4692497253418,
        -54.891178131103516,
        -53.070491790771484,
        -53.88789749145508,
        -47.610530853271484,
        -41.0952033996582,
        -38.32871627807617,
        -35.31533432006836,
        -32.53269577026367,
        -33.2450065612793,
        -37.70685958862305,
        -42.317813873291016,
        -46.34550857543945,
        -51.25020217895508,
        -55.67207717895508,
        -54.5069465637207,
        -56.77341079711914,
        -62.00971603393555,
        -69.83778381347656,
        -71.18413543701172,
        -79.42062377929688,
        -76.32442474365234,
        -68.17391967773438,
        -64.01203155517578,
        -60.041805267333984,
        -52.88607406616211,
        -50.23112869262695,
        -51.165409088134766,
        -51.69968032836914,
        -62.61684036254883,
        -69.15859985351562,
        -76.3693618774414,
        -72.1416244506836,
        -68.95939636230469,
        -62.17184829711914,
        -62.89577865600586,
        -66.6414566040039,
        -63.74876022338867,
        -60.96250534057617,
        -50.716617584228516,
        -44.327091217041016,
        -36.15019607543945,
        -34.39017868041992,
        -25.879640579223633,
        -17.859033584594727,
        -13.377954483032227,
        -14.22282600402832,
        -23.24857521057129,
        -27.11795997619629,
        -35.023983001708984,
        -32.46918869018555,
        -34.82048416137695,
        -39.5135383605957,
        -45.624454498291016,
        -44.30875778198242,
        -42.3350944519043,
        -39.6180305480957,
        -36.786197662353516,
        -38.24650192260742,
        -42.83761978149414,
        -41.540897369384766,
        -38.245914459228516,
        -44.66508102416992,
        -49.6725959777832,
        -62.59958267211914,
        -68.74320220947266,
        -71.94145965576172,
        -71.72769927978516,
        -75.67267608642578,
        -82.21894073486328,
        -83.23162841796875,
        -76.2535171508789,
        -68.19664001464844,
        -60.53537368774414,
        -58.34006118774414,
        -60.549190521240234,
        -68.67451477050781,
        -64.97447204589844,
        -63.28292465209961,
        -70.13842010498047,
        -74.30692291259766,
        -80.72269439697266,
        -74.63526153564453,
        -69.18287658691406,
        -53.99801254272461,
        -52.41059494018555,
        -54.9039421081543,
        -56.00430679321289,
        -53.9226188659668,
        -52.64995193481445,
        -47.369388580322266,
        -37.27872085571289,
        -27.765344619750977,
        -18.410921096801758,
        -8.21830940246582,
        -2.9836294651031494,
        -5.60807991027832,
        -8.18766975402832,
        -15.70311164855957,
        -21.695993423461914,
        -26.47606086730957,
        -30.468652725219727,
        -36.12351608276367,
        -38.00297927856445,
        -35.20242691040039,
        -33.18827438354492,
        -30.287904739379883,
        -29.275354385375977,
        -34.93192672729492,
        -39.87912368774414,
        -40.074161529541016,
        -42.55051040649414,
        -47.0403938293457,
        -50.736026763916016,
        -56.30527877807617,
        -63.053524017333984,
        -63.99173355102539,
        -64.58697509765625,
        -77.4477767944336,
        -86.30897521972656,
        -90.33839416503906,
        -84.2969970703125,
        -78.15303802490234,
        -68.9343032836914,
        -66.68217468261719,
        -70.18368530273438,
        -72.97172546386719,
        -66.1558837890625,
        -60.40609359741211,
        -62.9081916809082,
        -66.13803100585938,
        -70.11356353759766,
        -68.7365493774414,
        -61.68459701538086,
        -54.27097702026367,
        -56.194889068603516,
        -58.4330940246582,
        -61.67452621459961,
        -57.63080978393555,
        -58.744136810302734,
        -53.34645462036133,
        -49.7806282043457,
        -39.74314498901367,
        -30.47049903869629,
        -21.67777442932129,
        -17.495790481567383,
        -20.224267959594727,
        -24.487009048461914,
        -33.50959396362305,
        -38.32583999633789,
        -38.5988655090332,
        -40.091426849365234,
        -45.91769027709961,
        -49.15805435180664,
        -51.1027946472168,
        -47.29768753051758,
        -41.34836959838867,
        -34.94334030151367,
        -40.329463958740234,
        -45.77200698852539,
        -47.1346321105957,
        -43.04830551147461,
        -42.71040725708008,
        -44.88186264038086,
        -48.86195755004883,
        -62.39358139038086,
        -62.7135124206543,
        -60.513179779052734,
        -64.48493194580078,
        -77.1158447265625,
        -81.1702651977539,
        -82.09520721435547,
        -73.87166595458984,
        -58.620784759521484,
        -47.69169235229492,
        -43.42623519897461,
        -43.92570877075195,
        -38.6516227722168,
        -39.102962493896484,
        -41.0842170715332,
        -52.668148040771484,
        -68.12435913085938,
        -77.82805633544922,
        -78.3094482421875,
        -70.94348907470703,
        -71.33110046386719,
        -70.80974578857422,
        -67.27688598632812,
        -63.9426383972168,
        -57.41109085083008,
        -53.13462448120117,
        -45.81130599975586,
        -43.26517868041992,
        -38.746646881103516,
        -36.4330940246582,
        -35.47428512573242,
        -35.6849479675293,
        -34.70090866088867,
        -35.11921310424805,
        -34.67985916137695,
        -33.84760665893555,
        -32.509281158447266,
        -38.396976470947266,
        -43.35297775268555,
        -47.51017379760742,
        -47.05308151245117,
        -43.14445114135742,
        -39.82632827758789,
        -34.913761138916016,
        -40.47371292114258,
        -36.24087142944336,
        -39.0041618347168,
        -39.02647018432617,
        -48.59135055541992,
        -60.40402603149414,
        -75.76856994628906,
        -82.50829315185547,
        -80.00684356689453,
        -75.431884765625,
        -71.4674301147461,
        -68.86626434326172,
        -65.21070861816406,
        -60.57228469848633,
        -53.110355377197266,
        -46.14815139770508,
        -47.138248443603516,
        -51.11075973510742,
        -54.541194915771484,
        -55.82197189331055,
        -56.230525970458984,
        -55.97263717651367,
        -57.72817611694336,
        -66.53253173828125,
        -58.86526870727539,
        -62.546573638916016,
        -61.70693588256836,
        -60.51414108276367,
        -61.38444137573242,
        -61.869441986083984,
        -62.17844009399414,
        -59.16591262817383,
        -55.11427688598633,
        -44.585201263427734,
        -36.954166412353516,
        -32.03217697143555,
        -24.515443801879883,
        -21.133432388305664,
        -17.960359573364258,
        -22.148347854614258,
        -22.10991096496582,
        -26.22088050842285,
        -29.161569595336914,
        -30.877092361450195,
        -35.00032424926758,
        -35.863582611083984,
        -34.018367767333984,
        -27.392709732055664,
        -26.404748916625977,
        -24.232881546020508,
        -25.48948097229004,
        -31.32187843322754,
        -34.63510513305664,
        -37.49275588989258,
        -42.719058990478516,
        -53.54323959350586,
        -64.15242004394531,
        -75.65663146972656,
        -78.24754333496094,
        -80.79219818115234,
        -85.132568359375,
        -95.6278076171875,
        -100.0319595336914,
        -91.80228424072266,
        -80.99684143066406,
        -69.56792449951172,
        -71.72464752197266,
        -72.80232238769531,
        -72.25499725341797,
        -63.02680587768555,
        -63.37065505981445,
        -69.0001220703125,
        -78.99456787109375,
        -75.9129638671875,
        -65.27922058105469,
        -52.349552154541016,
        -50.54911422729492,
        -53.12911605834961,
        -55.20199966430664,
        -50.88730239868164,
        -42.464603424072266,
        -37.547847747802734,
        -33.09395980834961,
        -33.42252731323242,
        -29.114465713500977,
        -20.77287483215332,
        -15.08323860168457,
        -17.405824661254883,
        -26.52384376525879,
        -34.03519821166992,
        -41.306705474853516,
        -42.005672454833984,
        -43.05449295043945,
        -49.34492874145508,
        -54.22844314575195,
        -53.06118392944336,
        -46.64802932739258,
        -41.15030288696289,
        -37.3857307434082,
        -36.29641342163086,
        -36.198116302490234,
        -35.55320358276367,
        -34.59883499145508,
        -39.96682357788086,
        -44.07632064819336,
        -50.71469497680664,
        -53.942745208740234,
        -53.3913688659668,
        -58.898921966552734,
        -65.70492553710938,
        -70.39920806884766,
        -73.75272369384766,
        -77.04226684570312,
        -70.57657623291016,
        -60.3314094543457,
        -55.15243148803711,
        -47.004154205322266,
        -39.70371627807617,
        -38.08375930786133,
        -39.7802848815918,
        -47.27338790893555,
        -57.8762321472168,
        -71.41864776611328,
        -75.11244201660156,
        -76.17465209960938,
        -73.6783676147461,
        -69.65888977050781,
        -68.98925018310547,
        -67.56047058105469,
        -65.16558837890625,
        -57.2736930847168,
        -52.97947311401367,
        -49.93728256225586,
        -48.4281120300293,
        -41.71184158325195,
        -36.46486282348633,
        -32.16898727416992,
        -35.27846145629883,
        -39.62386703491211,
        -41.73677444458008,
        -40.32186508178711,
        -39.4671516418457,
        -41.46023178100586,
        -41.88369369506836,
        -43.35849380493164,
        -45.01151657104492,
        -44.817874908447266,
        -38.870426177978516,
        -35.462100982666016,
        -35.00888442993164,
        -37.025203704833984,
        -41.85750198364258,
        -43.23640823364258,
        -46.0860710144043,
        -51.09805679321289,
        -58.060604095458984,
        -66.18341064453125,
        -69.43182373046875,
        -72.64596557617188,
        -71.01426696777344,
        -74.24700164794922,
        -66.38760375976562,
        -63.50534439086914,
        -62.52920150756836,
        -54.699398040771484,
        -49.63668441772461,
        -46.53010177612305,
        -48.21157455444336,
        -46.839534759521484,
        -50.02884292602539,
        -54.56161117553711,
        -53.84242630004883,
        -58.81291580200195,
        -63.07878494262695,
        -63.92393112182617,
        -56.7931022644043,
        -57.494441986083984,
        -57.02029037475586,
        -52.52814865112305,
        -52.2296257019043,
        -48.80415725708008,
        -44.233150482177734,
        -41.35257339477539,
        -40.32602310180664,
        -34.51554489135742,
        -27.48387336730957,
        -27.156076431274414,
        -29.778024673461914,
        -35.219356536865234,
        -40.45376968383789,
        -45.50045394897461,
        -47.33881759643555,
        -47.24660873413086,
        -49.00911331176758,
        -49.70840072631836,
        -47.99982833862305,
        -42.87388229370117,
        -34.781490325927734,
        -27.544710159301758,
        -27.623048782348633,
        -32.337345123291016,
        -37.76010513305664,
        -36.91914749145508,
        -36.3388557434082,
        -33.2351188659668,
        -36.2777214050293,
        -40.05768966674805,
        -42.86790084838867,
        -44.1709098815918,
        -48.28372573852539,
        -54.70224380493164,
        -62.45322799682617,
        -66.68694305419922,
        -71.02059936523438,
        -63.49506759643555,
        -59.03895950317383,
        -58.44441604614258,
        -57.7530632019043,
        -54.766353607177734,
        -57.837520599365234,
        -69.06520080566406,
        -73.16145324707031,
        -87.57506561279297,
        -91.97333526611328,
        -88.43754577636719,
        -74.29196166992188,
        -68.8250961303711,
        -60.134395599365234,
        -51.874813079833984,
        -45.13325119018555,
        -39.23941421508789,
        -34.14352035522461,
        -31.146738052368164,
        -31.776330947875977,
        -27.41600227355957,
        -21.18345832824707,
        -20.01767921447754,
        -22.433732986450195,
        -27.282991409301758,
        -34.14394760131836,
        -41.65407180786133,
        -45.05209732055664,
        -48.75600814819336,
        -53.698055267333984,
        -60.937435150146484,
        -59.856197357177734,
        -58.9650764465332,
        -57.08378982543945,
        -52.57817459106445,
        -54.57810592651367,
        -54.31828689575195,
        -62.00656509399414,
        -62.57315444946289,
        -72.39478302001953,
        -72.12035369873047,
        -67.74008178710938,
        -68.1131362915039,
        -64.8847885131836,
        -64.66728973388672,
        -60.929866790771484,
        -63.3725700378418,
        -63.02592849731445,
        -60.5858039855957,
        -54.89033889770508,
        -47.64009475708008,
        -42.97493362426758,
        -40.39438247680664,
        -39.582698822021484,
        -37.33726119995117,
        -39.306156158447266,
        -40.574092864990234,
        -47.76357650756836,
        -56.24467849731445,
        -59.585384368896484,
        -65.06822204589844,
        -66.88282012939453,
        -66.06761932373047,
        -61.80825424194336,
        -64.37100219726562,
        -67.30880737304688,
        -61.64033889770508,
        -59.00248336791992,
        -51.4666633605957,
        -47.9611701965332,
        -43.25076675415039,
        -36.588619232177734,
        -32.339534759521484,
        -21.023752212524414,
        -21.15604591369629,
        -23.708383560180664,
        -29.385438919067383,
        -25.073862075805664,
        -28.249162673950195,
        -35.81943893432617,
        -37.67448806762695,
        -42.1999397277832,
        -43.4017448425293,
        -39.28654098510742,
        -35.20936965942383,
        -38.751590728759766,
        -41.64704513549805,
        -41.80720138549805,
        -48.578617095947266,
        -49.24299240112305,
        -54.61532974243164,
        -60.9387092590332,
        -70.47205352783203,
        -65.93486022949219,
        -62.306026458740234,
        -69.5167236328125,
        -74.40473937988281,
        -87.34545135498047,
        -91.33269500732422,
        -90.69698333740234,
        -80.33279418945312,
        -79.78174591064453,
        -75.57514953613281,
        -71.64728546142578,
        -64.99481201171875,
        -61.44314193725586,
        -56.83389663696289,
        -63.6481819152832,
        -78.5444564819336,
        -88.68135070800781,
        -84.81304931640625,
        -78.23625946044922,
        -76.20843505859375,
        -73.2990951538086,
        -80.03741455078125,
        -69.22681427001953,
        -58.5254020690918,
        -48.0616340637207,
        -42.842350006103516,
        -36.09334182739258,
        -32.72037124633789,
        -26.49370002746582,
        -17.839746475219727,
        -17.00065040588379,
        -22.535112380981445,
        -27.55539894104004,
        -35.01070022583008,
        -37.831912994384766,
        -35.32109451293945,
        -33.91123580932617,
        -33.7607536315918,
        -34.37833786010742,
        -30.941797256469727,
        -26.571542739868164,
        -24.852922439575195,
        -24.245241165161133,
        -25.87242317199707,
        -29.415864944458008,
        -31.23638343811035,
        -32.316715240478516,
        -34.29874038696289,
        -37.681644439697266,
        -38.151920318603516,
        -37.892154693603516,
        -39.97065353393555,
        -43.58623123168945,
        -49.12675094604492,
        -55.88058853149414,
        -60.994136810302734,
        -62.67173385620117,
        -66.53131103515625,
        -67.54833221435547,
        -69.9920654296875,
        -67.37578582763672,
        -62.252506256103516,
        -55.37594985961914,
        -52.84036636352539,
        -56.0241813659668,
        -55.08696365356445,
        -67.10195922851562,
        -64.45561981201172,
        -68.25736999511719,
        -67.40660095214844,
        -71.60132598876953,
        -65.46099853515625,
        -64.91520690917969,
        -65.41619873046875,
        -55.309444427490234,
        -50.91629409790039,
        -42.949214935302734,
        -37.9434700012207,
        -30.072450637817383,
        -25.625307083129883,
        -21.9122257232666,
        -21.14237403869629,
        -25.6828556060791,
        -29.91319465637207,
        -33.33137893676758,
        -36.99471664428711,
        -37.39657974243164,
        -42.575077056884766,
        -47.143611907958984,
        -49.60292434692383,
        -50.10499954223633,
        -39.230403900146484,
        -33.36037826538086,
        -29.146211624145508,
        -29.067399978637695,
        -25.66691780090332,
        -25.750673294067383,
        -28.965539932250977,
        -32.58553695678711,
        -47.19735336303711,
        -59.804378509521484,
        -65.86561584472656,
        -69.21524047851562,
        -73.4172592163086,
        -75.06668090820312,
        -70.86385345458984,
        -69.35615539550781,
        -65.77698516845703,
        -58.03745651245117,
        -58.436161041259766,
        -64.34841918945312,
        -71.97019958496094,
        -78.41525268554688,
        -84.76016998291016,
        -92.08796691894531,
        -91.23684692382812,
        -96.24468994140625,
        -87.9527359008789,
        -77.09732055664062,
        -71.80046844482422,
        -60.47098922729492,
        -56.695072174072266,
        -48.927677154541016,
        -43.1148567199707,
        -39.523677825927734,
        -36.357547760009766,
        -31.53813362121582,
        -23.91196632385254,
        -18.529603958129883,
        -12.09318733215332,
        -11.001665115356445,
        -13.418764114379883,
        -12.94035530090332,
        -18.103166580200195,
        -22.353273391723633,
        -27.592126846313477,
        -34.6115608215332,
        -40.688228607177734,
        -42.79061508178711,
        -45.82040023803711,
        -48.282962799072266,
        -42.22157669067383,
        -43.21998977661133,
        -43.1394157409668,
        -45.285587310791016,
        -48.37930679321289,
        -52.351131439208984,
        -55.76987075805664,
        -57.739192962646484,
        -64.73065185546875,
        -63.06593704223633,
        -68.0750732421875,
        -70.01617431640625,
        -78.62913513183594,
        -79.90950012207031,
        -78.25468444824219,
        -74.03872680664062,
        -66.33568572998047,
        -55.72542190551758,
        -50.751529693603516,
        -47.1552848815918,
        -42.606563568115234,
        -41.30159378051758,
        -43.61007308959961,
        -46.99491500854492,
        -56.70808029174805,
        -67.54457092285156,
        -66.46184539794922,
        -64.353515625,
        -61.43767166137695,
        -65.34075927734375,
        -64.24470520019531,
        -60.2315788269043,
        -55.29488754272461,
        -48.8444709777832,
        -48.58847427368164,
        -49.32930374145508,
        -47.529239654541016,
        -36.63237380981445,
        -32.18642044067383,
        -29.955202102661133,
        -32.626216888427734,
        -37.26248550415039,
        -36.56206130981445,
        -29.095979690551758,
        -27.47099494934082,
        -33.7952766418457,
        -37.432735443115234,
        -45.98850631713867,
        -46.80862045288086,
        -44.580074310302734,
        -41.90193557739258,
        -45.86628341674805,
        -45.03524398803711,
        -41.72617721557617,
        -40.66945266723633,
        -35.84035873413086,
        -34.7182502746582,
        -41.61234664916992,
        -47.13077926635742,
        -50.371578216552734,
        -55.1889533996582,
        -61.07246017456055,
        -68.84872436523438,
        -74.72761535644531,
        -76.06211853027344,
        -72.99305725097656,
        -70.22561645507812,
        -61.873470306396484,
        -55.603816986083984,
        -52.545902252197266,
        -47.71095657348633,
        -51.12544631958008,
        -56.07845687866211,
        -64.40470123291016,
        -75.24815368652344,
        -77.29561614990234,
        -82.01891326904297,
        -75.42344665527344,
        -70.5201416015625,
        -63.756046295166016,
        -62.2476921081543,
        -64.92303466796875,
        -59.34665298461914,
        -59.453800201416016,
        -50.47439193725586,
        -44.24764633178711,
        -39.03030776977539,
        -33.28007888793945,
        -29.769678115844727,
        -23.90562629699707,
        -21.999589920043945,
        -23.264780044555664,
        -30.694429397583008,
        -36.43082046508789,
        -40.279422760009766,
        -42.83143997192383,
        -45.27932357788086,
        -44.26620864868164,
        -43.78573989868164,
        -42.85895919799805,
        -37.5562858581543,
        -33.9254035949707,
        -28.98703956604004,
        -27.26854133605957,
        -25.04056739807129,
        -27.414918899536133,
        -29.193391799926758,
        -30.676759719848633,
        -35.70003890991211,
        -39.8823356628418,
        -48.19785690307617,
        -51.37630081176758,
        -56.60126876831055,
        -61.23820877075195,
        -62.57548904418945,
        -61.95956802368164,
        -60.35806655883789,
        -57.42349624633789,
        -52.645565032958984,
        -54.41079330444336,
        -57.288333892822266,
        -60.98623275756836,
        -67.16561126708984,
        -77.50304412841797,
        -83.10029602050781,
        -85.04850769042969,
        -82.67569732666016,
        -71.60643768310547,
        -56.4762077331543,
        -51.91769790649414,
        -50.06685256958008,
        -45.16951370239258,
        -48.385189056396484,
        -49.331233978271484,
        -48.37580490112305,
        -45.89439010620117,
        -40.64789962768555,
        -31.632097244262695,
        -22.307252883911133,
        -16.849077224731445,
        -13.424966812133789,
        -14.073617935180664,
        -22.442880630493164,
        -26.560197830200195,
        -34.70353317260742,
        -38.894771575927734,
        -46.71254348754883,
        -50.80484390258789,
        -50.36350631713867,
        -47.49269485473633,
        -40.12662124633789,
        -35.576778411865234,
        -34.2820930480957,
        -35.9385871887207,
        -36.46149826049805,
        -38.41958236694336,
        -44.77340316772461,
        -54.129512786865234,
        -59.4843635559082,
        -67.14321899414062,
        -61.288509368896484,
        -55.72745132446289,
        -53.22776412963867,
        -55.709415435791016,
        -51.67335891723633,
        -50.09501266479492,
        -47.6872444152832,
        -43.95730209350586,
        -50.23904037475586,
        -57.51166915893555,
        -64.94237518310547,
        -65.93698120117188,
        -70.46232604980469,
        -69.79730224609375,
        -74.3831787109375,
        -73.85308074951172,
        -66.73419189453125,
        -57.41250991821289,
        -55.70975875854492,
        -57.925777435302734,
        -64.73937225341797,
        -68.01769256591797,
        -65.07139587402344,
        -66.86759185791016,
        -65.6487045288086,
        -64.1615219116211,
        -53.41048812866211,
        -40.273555755615234,
        -25.914087295532227,
        -13.52861213684082,
        -7.903726577758789,
        -9.636125564575195,
        -16.913087844848633,
        -22.80363655090332,
        -29.51335334777832,
        -36.3000373840332,
        -42.46597671508789,
        -48.60273361206055,
        -52.351253509521484,
        -50.148380279541016,
        -43.742862701416016,
        -38.21871566772461,
        -35.03281784057617,
        -36.780696868896484,
        -36.56772232055664,
        -39.19643783569336,
        -42.822269439697266,
        -46.15285110473633,
        -50.72835922241211,
        -61.44511032104492,
        -62.00691604614258,
        -60.926753997802734,
        -63.2649040222168,
        -65.29829406738281,
        -65.71808624267578,
        -67.29708862304688,
        -68.65826416015625,
        -58.72433090209961,
        -54.464054107666016,
        -50.972408294677734,
        -49.07485580444336,
        -46.12601089477539,
        -49.821468353271484,
        -54.39401626586914,
        -66.3717269897461,
        -82.59730529785156,
        -89.45834350585938,
        -89.18887329101562,
        -83.9084243774414,
        -77.9572982788086,
        -71.02728271484375,
        -66.73986053466797,
        -59.72359085083008,
        -50.882877349853516,
        -44.31069564819336,
        -41.10036849975586,
        -41.68523025512695,
        -36.312198638916016,
        -33.038211822509766,
        -24.755693435668945,
        -20.778589248657227,
        -23.418367385864258,
        -26.922243118286133,
        -32.02653121948242,
        -31.627099990844727,
        -37.8356819152832,
        -37.92705154418945,
        -43.83834457397461,
        -43.582706451416016,
        -42.65803146362305,
        -35.08352279663086,
        -28.42637825012207,
        -30.5806827545166,
        -35.25785446166992,
        -44.220088958740234,
        -45.477115631103516,
        -45.67985916137695,
        -46.230289459228516,
        -50.738399505615234,
        -52.93690872192383,
        -50.40584945678711,
        -44.90670394897461,
        -40.85799026489258,
        -44.149532318115234,
        -49.62675857543945,
        -51.702938079833984,
        -49.33452224731445,
        -44.4742546081543,
        -38.779964447021484,
        -37.932369232177734,
        -39.12801742553711,
        -35.4971809387207,
        -32.4096565246582,
        -34.02854537963867,
        -45.7563362121582,
        -57.57448959350586,
        -61.818302154541016,
        -63.77614974975586,
        -61.5323371887207,
        -64.41041564941406,
        -69.03009033203125,
        -72.72356414794922,
        -70.08189392089844,
        -65.37943267822266,
        -66.68360900878906,
        -65.967041015625,
        -63.19229507446289,
        -54.40409469604492,
        -43.750179290771484,
        -35.02134323120117,
        -30.25791358947754,
        -31.778230667114258,
        -35.998531341552734,
        -30.612062454223633,
        -32.99055862426758,
        -33.42733383178711,
        -36.49460983276367,
        -41.74245071411133,
        -44.65488815307617,
        -42.8367805480957,
        -34.354488372802734,
        -33.85036849975586,
        -30.528085708618164,
        -33.08576583862305,
        -35.59782028198242,
        -33.9556770324707,
        -35.5703239440918,
        -41.80060958862305,
        -54.16415786743164,
        -64.04525756835938,
        -75.0801010131836,
        -78.92766571044922,
        -77.31578063964844,
        -82.18629455566406,
        -86.07527160644531,
        -82.24777221679688,
        -70.67292022705078,
        -57.49081039428711,
        -46.026912689208984,
        -46.399959564208984,
        -55.09920120239258,
        -60.5334358215332,
        -58.769954681396484,
        -61.45077133178711,
        -67.30821228027344,
        -67.79396057128906,
        -69.31080627441406,
        -64.82527160644531,
        -57.76530838012695,
        -56.860965728759766,
        -59.59389877319336,
        -58.29704666137695,
        -57.63874435424805,
        -56.12710189819336,
        -53.07535171508789,
        -45.35750961303711,
        -46.626468658447266,
        -39.142024993896484,
        -32.9896354675293,
        -29.669191360473633,
        -27.902498245239258,
        -29.950647354125977,
        -32.743473052978516,
        -34.91179275512695,
        -30.09575843811035,
        -25.271867752075195,
        -28.628320693969727,
        -33.6198616027832,
        -39.57766342163086,
        -40.04677200317383,
        -40.55685043334961,
        -41.75840377807617,
        -43.3228874206543,
        -46.2778205871582,
        -46.63438034057617,
        -39.00217056274414,
        -35.453983306884766,
        -39.41172409057617,
        -43.18794631958008,
        -53.40596389770508,
        -64.23152923583984,
        -77.53303527832031,
        -77.6146011352539,
        -101.90016174316406,
        -105.5344467163086,
        -98.88859558105469,
        -86.5038070678711,
        -76.65625,
        -61.69475173950195,
        -57.27231216430664,
        -53.89634323120117,
        -48.58858108520508,
        -45.67794418334961,
        -54.32188034057617,
        -55.7652702331543,
        -56.2342414855957,
        -61.32741165161133,
        -61.74917984008789,
        -64.61237335205078,
        -59.86020278930664,
        -64.95146942138672,
        -58.1592903137207,
        -57.83305740356445,
        -55.888187408447266,
        -53.561458587646484,
        -45.2181282043457,
        -40.95292282104492,
        -39.97128677368164,
        -40.00607681274414,
        -48.32174301147461,
        -61.50193405151367,
        -64.31609344482422,
        -63.17795944213867,
        -62.884395599365234,
        -58.9698600769043,
        -49.84389114379883,
        -42.9321403503418,
        -37.70932388305664,
        -30.662630081176758,
        -36.505496978759766,
        -40.512874603271484,
        -41.90785598754883,
        -35.402530670166016,
        -32.456974029541016,
        -29.589860916137695,
        -26.577699661254883,
        -27.06536293029785,
        -21.566301345825195,
        -20.53367805480957,
        -22.66337013244629,
        -33.74583053588867,
        -47.83900833129883,
        -58.014835357666016,
        -67.11494445800781,
        -71.3113021850586,
        -74.4797592163086,
        -75.7709732055664,
        -74.75144958496094,
        -65.7628402709961,
        -57.88943862915039,
        -55.5267219543457,
        -54.22391128540039,
        -60.35404586791992,
        -66.72901153564453,
        -76.88462829589844,
        -81.25350952148438,
        -91.98358917236328,
        -96.81867980957031,
        -83.0047378540039,
        -76.98365020751953,
        -66.17786407470703,
        -55.75460433959961,
        -48.43106460571289,
        -40.83779525756836,
        -32.91054153442383,
        -23.993303298950195,
        -19.49784278869629,
        -13.624536514282227,
        -15.971857070922852,
        -19.351709365844727,
        -20.72032356262207,
        -24.13681983947754,
        -33.318607330322266,
        -40.92709732055664,
        -46.86619186401367,
        -51.555233001708984,
        -50.38956832885742,
        -43.23237228393555,
        -40.91475296020508,
        -41.38145065307617,
        -36.265743255615234,
        -32.3049430847168,
        -34.557247161865234,
        -38.06716537475586,
        -46.038265228271484,
        -60.58109664916992,
        -65.1141586303711,
        -61.885494232177734,
        -55.80332565307617,
        -53.82078170776367,
        -52.52180862426758,
        -49.6806755065918,
        -50.24269485473633,
        -53.402156829833984,
        -59.51847457885742,
        -66.4367904663086,
        -73.36028289794922,
        -70.71234130859375,
        -62.02009963989258,
        -60.21226119995117,
        -59.949710845947266,
        -58.3615608215332,
        -50.44327163696289,
        -45.1001091003418,
        -47.9503288269043,
        -59.41633224487305,
        -68.37643432617188,
        -70.28746032714844,
        -61.19248580932617,
        -56.67012405395508,
        -58.36311721801758,
        -59.45071029663086,
        -54.92521286010742,
        -45.804080963134766,
        -39.92942428588867,
        -34.229976654052734,
        -32.981990814208984,
        -30.673463821411133,
        -26.79998207092285,
        -21.92270851135254,
        -22.467477798461914,
        -30.432458877563477,
        -38.686954498291016,
        -47.74410629272461,
        -45.252193450927734,
        -44.09402847290039,
        -47.423702239990234,
        -49.49544143676758,
        -50.0931510925293,
        -48.1400032043457,
        -43.273921966552734,
        -38.395938873291016,
        -40.29597091674805,
        -44.97275924682617,
        -46.75504684448242,
        -51.37456130981445,
        -47.95192337036133,
        -49.89555740356445,
        -50.633548736572266,
        -50.54841232299805,
        -49.77851486206055,
        -52.82026290893555,
        -54.153316497802734,
        -59.06733322143555,
        -66.21915435791016,
        -62.879337310791016,
        -62.98215866088867,
        -63.91880416870117,
        -61.63199996948242,
        -59.18893051147461,
        -59.041255950927734,
        -55.9228630065918,
        -48.905765533447266,
        -50.43864822387695,
        -52.28030776977539,
        -56.557559967041016,
        -56.787967681884766,
        -54.224056243896484,
        -54.36887741088867,
        -53.06462478637695,
        -58.2551383972168,
        -58.301937103271484,
        -64.2911605834961,
        -59.3887825012207,
        -56.61385726928711,
        -52.77579879760742,
        -46.03908920288086,
        -36.4694938659668,
        -25.685976028442383,
        -18.400209426879883,
        -12.949007034301758,
        -16.844758987426758,
        -25.71268653869629,
        -29.4263858795166,
        -35.663150787353516,
        -41.934261322021484,
        -47.95102310180664,
        -52.3546257019043,
        -52.69430923461914,
        -48.350093841552734,
        -39.9437141418457,
        -35.28544998168945,
        -29.21872901916504,
        -29.516817092895508,
        -28.87773323059082,
        -30.0435733795166,
        -33.24252700805664,
        -43.99031448364258,
        -52.88057327270508,
        -52.46458053588867,
        -59.92221450805664,
        -63.33451461791992,
        -67.46338653564453,
        -73.781982421875,
        -75.60686492919922,
        -77.81929016113281,
        -74.88155364990234,
        -69.98753356933594,
        -61.722843170166016,
        -55.687679290771484,
        -58.388668060302734,
        -62.835262298583984,
        -79.09564208984375,
        -86.28634643554688,
        -96.21711730957031,
        -109.31668853759766,
        -106.91233825683594,
        -94.1934814453125,
        -78.63262939453125,
        -65.39482116699219,
        -51.5290641784668,
        -46.30595016479492,
        -50.01700210571289,
        -43.511905670166016,
        -39.1911506652832,
        -38.85341262817383,
        -30.67984962463379,
        -21.01683235168457,
        -11.914949417114258,
        -6.464693069458008,
        0.1006372794508934,
        -2.711794137954712,
        -12.024789810180664,
        -19.3870792388916,
        -30.011865615844727,
        -37.476688385009766,
        -43.36088180541992,
        -41.52939224243164,
        -42.40736770629883,
        -44.6182975769043,
        -38.9487419128418,
        -37.09816360473633,
        -34.22080612182617,
        -39.25887680053711,
        -46.016056060791016,
        -59.49580764770508,
        -63.04281997680664,
        -56.78770065307617,
        -58.601383209228516,
        -57.96492385864258,
        -61.75446701049805,
        -60.37870407104492,
        -58.740360260009766,
        -60.24007797241211,
        -63.25882339477539,
        -71.2471694946289,
        -75.8436508178711,
        -70.03540802001953,
        -61.02504348754883,
        -57.33127212524414,
        -57.91415023803711,
        -57.049991607666016,
        -58.875667572021484,
        -54.29568862915039,
        -52.3599967956543,
        -60.00617599487305,
        -67.30358123779297,
        -68.45918273925781,
        -65.60673522949219,
        -58.981204986572266,
        -53.22636032104492,
        -55.93263626098633,
        -57.15730667114258,
        -56.34378433227539,
        -54.801387786865234,
        -48.8245964050293,
        -43.80234146118164,
        -36.124752044677734,
        -31.658700942993164,
        -23.993783950805664,
        -19.578889846801758,
        -18.7543888092041,
        -20.194978713989258,
        -28.06181526184082,
        -34.420284271240234,
        -42.155208587646484,
        -46.2912483215332,
        -51.37991714477539,
        -55.18284225463867,
        -53.45051193237305,
        -52.37515640258789,
        -44.77493667602539,
        -38.246212005615234,
        -36.58589553833008,
        -35.186458587646484,
        -38.744319915771484,
        -43.86252212524414,
        -50.7458381652832,
        -53.255855560302734,
        -57.62388229370117,
        -66.4310531616211,
        -68.37649536132812,
        -75.27352142333984,
        -75.53895568847656,
        -77.973388671875,
        -76.4205551147461,
        -67.86781311035156,
        -62.44863510131836,
        -52.327396392822266,
        -46.01321029663086,
        -43.29146194458008,
        -43.99191665649414,
        -44.050411224365234,
        -47.76276779174805,
        -63.0402946472168,
        -68.2298355102539,
        -73.95382690429688,
        -68.64749908447266,
        -57.245121002197266,
        -51.77207565307617,
        -50.122928619384766,
        -50.63380813598633,
        -45.215694427490234,
        -42.83321762084961,
        -38.36733627319336,
        -39.75397872924805,
        -38.441585540771484,
        -31.211862564086914,
        -21.510271072387695,
        -13.962244033813477,
        -14.890031814575195,
        -19.65965461730957,
        -25.736291885375977,
        -28.793222427368164,
        -32.39029312133789,
        -37.79708480834961,
        -45.300106048583984,
        -52.52017593383789,
        -53.04568099975586,
        -51.32143020629883,
        -48.348270416259766,
        -45.15285873413086,
        -47.188594818115234,
        -50.89725112915039,
        -54.031612396240234,
        -56.3663444519043,
        -63.188358306884766,
        -65.55976867675781,
        -66.86192321777344,
        -68.84040832519531,
        -71.02985382080078,
        -70.85861206054688,
        -78.4913101196289,
        -85.69661712646484,
        -89.3951416015625,
        -85.33057403564453,
        -82.09002685546875,
        -73.48233795166016,
        -59.947086334228516,
        -50.24991989135742,
        -42.8689079284668,
        -38.76591873168945,
        -36.21231460571289,
        -41.18938064575195,
        -45.861576080322266,
        -53.37398147583008,
        -59.95139694213867,
        -62.76588821411133,
        -53.88625717163086,
        -47.49185562133789,
        -43.78618240356445,
        -39.34096145629883,
        -39.619998931884766,
        -44.12102127075195,
        -47.618892669677734,
        -46.624507904052734,
        -40.21049880981445,
        -29.550477981567383,
        -23.374643325805664,
        -23.66338539123535,
        -27.590394973754883,
        -32.1409797668457,
        -40.803897857666016,
        -49.26333999633789,
        -60.98234176635742,
        -70.37515258789062,
        -73.996826171875,
        -67.4806900024414,
        -61.7407112121582,
        -60.928897857666016,
        -56.62858200073242,
        -47.43474197387695,
        -34.94118118286133,
        -24.339075088500977,
        -12.382791519165039,
        -12.688783645629883,
        -8.778711318969727,
        -2.9017813205718994,
        6.726858139038086,
        15.975545883178711,
        26.841665267944336,
        35.87379837036133,
        42.76759719848633,
        48.7956428527832,
        44.22391128540039,
        33.71901321411133,
        18.359167098999023,
        12.076711654663086,
        3.0322625637054443,
        -1.6722050905227661,
        -9.351831436157227,
        -15.914026260375977,
        -18.760568618774414,
        -19.345354080200195,
        -18.482576370239258,
        -21.155305862426758,
        -25.7961368560791,
        -26.773706436157227,
        -23.71099281311035,
        -17.473222732543945,
        -12.878847122192383,
        -10.400789260864258,
        -9.062417984008789,
        -8.370859146118164,
        -5.02110481262207,
        -2.180116891860962,
        2.648977041244507,
        6.728078842163086,
        12.842840194702148,
        18.59602928161621,
        23.666051864624023,
        27.03603172302246,
        28.18207359313965,
        24.900686264038086,
        21.386220932006836,
        15.089010238647461,
        6.850637435913086,
        1.5280817747116089,
        -1.8366414308547974,
        -6.31047248840332,
        -5.124979019165039,
        -1.3675175905227661,
        0.5465906262397766,
        1.8362482786178589,
        0.5977380871772766,
        -3.5887396335601807,
        -6.542673110961914,
        -5.755708694458008,
        -10.887674331665039,
        -12.932024002075195,
        -18.886751174926758,
        -23.824472427368164,
        -27.010522842407227,
        -27.47574806213379,
        -27.31797981262207,
        -28.8651065826416,
        -27.22135353088379,
        -26.01915168762207,
        -16.484201431274414,
        -10.774187088012695,
        -4.283159255981445,
        -5.230493545532227,
        -8.422769546508789,
        -7.067842483520508,
        -9.583246231079102,
        -12.077226638793945,
        -20.94822883605957,
        -26.940156936645508,
        -30.144014358520508,
        -26.675546646118164,
        -23.23362159729004,
        -23.808679580688477,
        -23.05051612854004,
        -22.58982276916504,
        -20.092493057250977,
        -14.665239334106445,
        -12.982118606567383,
        -14.599138259887695,
        -11.784784317016602,
        -7.81938362121582,
        -3.4198248386383057,
        -0.4031926691532135,
        -0.6385900378227234,
        -3.7516043186187744,
        -7.234270095825195,
        -11.461610794067383,
        -14.367448806762695,
        -15.02208137512207,
        -18.0046329498291,
        -21.531206130981445,
        -21.89964485168457,
        -18.34495735168457,
        -13.25383186340332,
        -9.023134231567383,
        -8.274850845336914,
        -11.987916946411133,
        -14.846406936645508,
        -15.260965347290039,
        -16.71153450012207,
        -19.589693069458008,
        -20.43620491027832,
        -25.556344985961914,
        -33.1862678527832,
        -37.652523040771484,
        -39.71908187866211,
        -43.13490676879883,
        -45.8591194152832,
        -48.71553421020508,
        -51.69784164428711,
        -45.7486686706543,
        -39.83793258666992,
        -37.929378509521484,
        -40.83712387084961,
        -39.70707321166992,
        -40.214839935302734,
        -39.54713821411133,
        -44.4781608581543,
        -49.64081954956055,
        -52.08639144897461,
        -52.14639663696289,
        -48.97989273071289,
        -49.047908782958984,
        -50.50448226928711,
        -49.4422721862793,
        -44.47104263305664,
        -37.95096206665039,
        -31.9140567779541,
        -21.533998489379883,
        -11.848566055297852,
        -5.891542434692383,
        0.271322101354599,
        -2.7719290256500244,
        -8.457223892211914,
        -16.505647659301758,
        -20.530542373657227,
        -27.441286087036133,
        -31.422433853149414,
        -34.06050491333008,
        -36.61478805541992,
        -34.459529876708984,
        -28.314287185668945,
        -24.939409255981445,
        -26.513917922973633,
        -27.762346267700195,
        -32.81245803833008,
        -37.35647201538086,
        -40.57411575317383,
        -45.278194427490234,
        -50.45516586303711,
        -47.303096771240234,
        -43.65218734741211,
        -41.385799407958984,
        -40.85672378540039,
        -44.26265335083008,
        -51.51113510131836,
        -50.8797721862793,
        -53.26120376586914,
        -52.20541763305664,
        -49.591976165771484,
        -45.19070053100586,
        -41.07514572143555,
        -32.4744758605957,
        -22.76201820373535,
        -22.265718460083008,
        -21.3155460357666,
        -26.213808059692383,
        -32.937984466552734,
        -41.704044342041016,
        -41.5233268737793,
        -49.282527923583984,
        -52.74764633178711,
        -53.21257400512695,
        -53.76594161987305,
        -55.36033248901367,
        -53.06612014770508,
        -48.43593215942383,
        -48.31059646606445,
        -41.43655014038086,
        -33.46113967895508,
        -26.124536514282227,
        -23.312631607055664,
        -23.958566665649414,
        -27.203554153442383,
        -31.869752883911133,
        -34.23660659790039,
        -32.64371871948242,
        -37.10324478149414,
        -45.8480110168457,
        -50.6570930480957,
        -49.74721908569336,
        -49.50070571899414,
        -45.65690231323242,
        -41.614986419677734,
        -42.92766189575195,
        -45.4952507019043,
        -42.79816818237305,
        -41.869754791259766,
        -48.34653091430664,
        -55.170284271240234,
        -65.92506408691406,
        -66.83002471923828,
        -66.55745697021484,
        -67.96571350097656,
        -75.26559448242188,
        -83.50279235839844,
        -88.12834167480469,
        -82.7384262084961,
        -72.97535705566406,
        -67.73255157470703,
        -65.71500396728516,
        -55.53128433227539,
        -55.219417572021484,
        -49.52287673950195,
        -39.87959671020508,
        -41.48740005493164,
        -54.9117546081543,
        -64.97761535644531,
        -72.28144836425781,
        -69.76982879638672,
        -57.01089096069336,
        -50.771183013916016,
        -54.456119537353516,
        -54.43918991088867,
        -47.25468063354492,
        -42.100643157958984,
        -32.7805061340332,
        -31.75896644592285,
        -27.948640823364258,
        -23.5067081451416,
        -17.82866859436035,
        -12.721277236938477,
        -13.582727432250977,
        -21.323556900024414,
        -33.206668853759766,
        -37.41207504272461,
        -46.187862396240234,
        -49.77201461791992,
        -50.86160659790039,
        -51.98885726928711,
        -49.32625961303711,
        -44.978145599365234,
        -36.0712776184082,
        -32.64461898803711,
        -31.555185317993164,
        -34.24677658081055,
        -35.11433029174805,
        -35.69741439819336,
        -37.63473892211914,
        -38.342403411865234,
        -39.9968376159668,
        -41.03170394897461,
        -38.32577133178711,
        -42.26765823364258,
        -47.95985794067383,
        -58.79537582397461,
        -67.9973373413086,
        -73.1623306274414,
        -77.55335235595703,
        -78.14009857177734,
        -74.33613586425781,
        -72.57032012939453,
        -66.1510238647461,
        -60.56156539916992,
        -58.50734329223633,
        -60.78596115112305,
        -69.72693634033203,
        -83.50370788574219,
        -89.6651382446289,
        -84.75672912597656,
        -80.2145767211914,
        -75.39949035644531,
        -68.04617309570312,
        -65.12281799316406,
        -50.651493072509766,
        -42.51089859008789,
        -36.1937141418457,
        -27.947107315063477,
        -16.172441482543945,
        -9.107095718383789,
        -7.246065139770508,
        -2.771333932876587,
        -9.689973831176758,
        -11.614763259887695,
        -19.0992374420166,
        -27.111757278442383,
        -35.98274612426758,
        -36.04575729370117,
        -38.11019515991211,
        -38.83681869506836,
        -29.758142471313477,
        -30.319414138793945,
        -24.092439651489258,
        -13.302621841430664,
        -2.201875925064087,
        -6.828584671020508,
        -19.794198989868164,
        -26.315858840942383,
        -21.013399124145508,
        -21.10209846496582,
        -33.53712844848633,
        -33.571590423583984,
        -36.79799270629883,
        -34.772708892822266,
        -36.61396408081055,
        -46.7365608215332,
        -55.45686721801758,
        -66.92465209960938,
        -70.52984619140625,
        -63.944210052490234,
        -54.03139114379883,
        -57.93156814575195,
        -48.610103607177734,
        -36.80837631225586,
        -32.91990280151367,
        -26.534944534301758,
        -19.125505447387695,
        -20.516382217407227,
        -37.975833892822266,
        -47.404483795166016,
        -50.80013656616211,
        -53.28708267211914,
        -61.8550910949707,
        -62.49306106567383,
        -64.60572814941406,
        -58.32303237915039,
        -49.14603805541992,
        -39.55600357055664,
        -26.1356143951416,
        -16.99815559387207,
        -12.033937454223633,
        0.8450830578804016,
        -0.5344945788383484,
        -2.9598867893218994,
        -18.2235050201416,
        -31.495668411254883,
        -37.66727066040039,
        -40.62423324584961,
        -44.23728561401367,
        -46.12065505981445,
        -46.44321823120117,
        -47.68149948120117,
        -39.09415817260742,
        -32.117923736572266,
        -25.76902961730957,
        -22.971956253051758,
        -21.475358963012695,
        -24.148508071899414,
        -24.002580642700195,
        -29.629724502563477,
        -34.23672866821289,
        -38.70847702026367,
        -41.08363723754883,
        -46.70205307006836,
        -53.9953727722168,
        -60.20124435424805,
        -66.74837493896484,
        -67.61670684814453,
        -64.99636840820312,
        -62.022090911865234,
        -55.67898941040039,
        -55.9538459777832,
        -55.084285736083984,
        -58.6691780090332,
        -71.48786926269531,
        -90.65341186523438,
        -100.1041488647461,
        -103.6308364868164,
        -107.07758331298828,
        -87.16658020019531,
        -75.73839569091797,
        -61.892086029052734,
        -54.20073318481445,
        -47.681522369384766,
        -50.307308197021484,
        -47.35415267944336,
        -47.611331939697266,
        -44.428951263427734,
        -45.01259994506836,
        -37.732967376708984,
        -30.698518753051758,
        -28.402238845825195,
        -24.751161575317383,
        -33.07313919067383,
        -38.08893966674805,
        -46.89467239379883,
        -50.417842864990234,
        -55.76188278198242,
        -53.875919342041016,
        -50.733211517333984,
        -43.61790084838867,
        -36.633785247802734,
        -30.782251358032227,
        -23.894014358520508,
        -22.065797805786133,
        -26.943490982055664,
        -31.59551429748535,
        -33.3393669128418,
        -37.80941390991211,
        -42.007938385009766,
        -47.14103317260742,
        -52.35689926147461,
        -53.47006607055664,
        -54.774051666259766,
        -54.8027229309082,
        -60.78773880004883,
        -67.10282135009766,
        -68.90170288085938,
        -72.7379150390625,
        -74.59764099121094,
        -78.7475814819336,
        -72.3746566772461,
        -74.03041076660156,
        -65.68240356445312,
        -64.11720275878906,
        -59.70272445678711,
        -57.531734466552734,
        -59.200740814208984,
        -60.68288803100586,
        -64.64421081542969,
        -63.790775299072266,
        -66.58297729492188,
        -63.2017936706543,
        -59.59285354614258,
        -55.2148551940918,
        -51.12968063354492,
        -45.32966232299805,
        -44.24238204956055,
        -41.830196380615234,
        -38.12321090698242,
        -32.822147369384766,
        -32.926883697509766,
        -34.34165573120117,
        -33.57199478149414,
        -34.32742691040039,
        -29.957231521606445,
        -27.60740852355957,
        -27.77311134338379,
        -29.298479080200195,
        -31.79575538635254,
        -29.176515579223633,
        -27.00998878479004,
        -25.805452346801758,
        -25.560625076293945,
        -30.738420486450195,
        -34.766292572021484,
        -41.77915573120117,
        -44.743473052978516,
        -48.80534744262695,
        -51.55868148803711,
        -52.225528717041016,
        -55.38156509399414,
        -53.72146987915039,
        -55.043087005615234,
        -56.36350631713867,
        -61.425960540771484,
        -63.430057525634766,
        -68.81669616699219,
        -65.98493194580078,
        -61.759403228759766,
        -57.87936019897461,
        -53.96609878540039,
        -47.60783004760742,
        -43.71977615356445,
        -40.2600212097168,
        -38.95637130737305,
        -38.24355697631836,
        -43.193294525146484,
        -48.77152633666992,
        -51.3354377746582,
        -53.435550689697266,
        -54.509769439697266,
        -61.7379264831543,
        -66.3431167602539,
        -73.42671966552734,
        -69.55785369873047,
        -61.36276626586914,
        -53.20432662963867,
        -48.7375602722168,
        -39.18564987182617,
        -26.864023208618164,
        -17.55047035217285,
        -12.958902359008789,
        -17.995378494262695,
        -29.107912063598633,
        -35.89299392700195,
        -36.63632583618164,
        -37.54267501831055,
        -39.614261627197266,
        -41.1965217590332,
